nep4 1 C 
cutoff 7 3.5 358 49
n_max 8 8
basis_size 8 8
l_max 4 2 0
ANN 100 0
  4.9227546e-04
  1.1208870e+00
  4.7510350e-01
  2.2921531e+00
  3.0572340e+00
 -2.4670949e+00
  6.7049111e-03
  2.4942781e-01
 -6.0604833e-04
 -2.5774507e-04
 -2.8318048e-01
  6.2667358e-01
 -4.9177158e-01
  1.6239347e+00
  6.4338291e-01
  3.3249292e-01
  1.4397387e-03
  1.1319319e+00
 -2.3922503e+00
 -1.4985468e+00
  5.0703955e-01
  1.7565296e+00
 -2.1331373e-01
  4.6714061e-01
 -1.9070150e-02
  4.7780359e-03
  1.1648926e+00
  4.4009778e-01
  3.2270763e-02
  1.9680230e-01
 -4.0693963e-03
  7.2485816e-01
 -7.6698321e-01
  9.0054059e-01
  1.8427159e+00
 -1.2753415e-01
 -2.5657547e-01
 -2.1708782e-01
 -1.4463536e-01
 -5.6751044e-03
 -1.8248649e-01
  1.4785197e+00
 -4.6535456e-01
  4.5742977e-01
  1.1761329e-01
  4.6984863e-04
 -3.5084822e-04
 -1.5514172e-04
  8.1537000e-04
 -8.5752620e-04
  1.7189969e-04
 -1.3713085e-04
  8.4802115e-05
 -5.1881000e-04
  4.0931336e-04
 -7.8646874e-01
 -9.9353850e-02
 -6.8705305e-03
  3.4143717e+00
  1.5775439e-03
 -6.6860735e-02
 -6.7688584e-01
 -1.3074811e+00
  4.9871441e-02
  7.3017343e-04
  1.4517760e-02
  7.8805228e-04
  4.2729992e-01
 -1.4011616e+00
 -2.4124799e+00
  7.6016003e-01
 -1.4281484e-01
  5.6827617e-01
 -7.5535578e-01
  5.0752670e-01
  2.0451951e+00
  3.7081821e+00
  1.0407306e-01
 -1.8302727e+00
  8.9546200e-03
  2.8406458e+00
  7.4685687e-01
 -1.5940558e+00
  1.6695720e+00
 -3.9969322e-01
 -2.2580898e+00
  5.8635980e-01
 -5.0541449e-01
  7.0725751e-01
  1.9069251e+00
  2.8045602e+00
  2.0176095e-04
  1.1862625e-03
  1.5607719e+00
 -2.1943784e+00
  1.1416924e+00
 -2.2150616e-01
  9.7199333e-01
 -1.7927617e+00
  1.5760221e-02
  1.0986155e-04
  5.5240470e-01
  9.6675259e-04
 -1.1662775e-05
 -1.3491024e-03
 -2.0870916e-04
 -2.3033707e-04
  1.6195979e-03
  3.6692256e-03
  6.4160515e-05
 -4.5670974e-01
  5.5169524e-04
  1.7487878e+00
 -6.8076736e-01
 -1.5249056e+00
 -1.6626848e-01
  5.5265564e-01
 -1.4397131e+00
  2.4949439e-04
 -8.2906646e-01
 -4.8111612e-01
 -2.5350494e-02
 -1.0381285e+00
  1.3414978e+00
 -1.3797765e-02
 -1.3463993e+00
  4.9843952e-01
  2.2606105e-01
  4.5719915e-03
  1.3300719e+00
 -1.2545507e+00
 -6.5124393e-01
  2.4647212e+00
  6.9847465e-01
  1.6086245e-02
  4.5391850e-02
  5.7670927e-01
 -2.9378864e-01
 -6.3950962e-01
 -1.9851109e-01
  2.5950193e-01
 -2.6578173e-01
  7.3122539e-02
 -5.0885193e-02
 -2.0896343e-03
 -3.0673256e-03
 -1.2757068e+00
  1.8097993e+00
 -1.7439224e+00
 -2.0434450e-01
 -6.8857503e-01
 -6.3410383e-01
 -1.0901040e+00
  6.2039058e-04
 -4.2409220e-01
  3.8573373e-02
 -6.0541771e-02
  1.0077300e+00
  8.3880121e-04
 -1.5329352e-03
 -2.1772654e-05
 -1.5256814e+00
  7.1982772e-04
  4.2314286e-04
 -1.2495679e-04
 -5.0410122e-04
  3.4388950e-01
 -1.9659695e-01
 -4.9352371e-03
 -1.0958918e-02
  6.7070298e-02
  1.8004034e+00
  1.7504939e-01
  1.6314975e-03
 -4.9080455e-01
  1.0889225e+00
 -3.2243874e-02
  9.3880260e-01
 -8.9376510e-05
  2.0296946e+00
  3.9371902e-01
  4.5074706e-04
 -1.8614668e+00
  9.5844638e-01
  3.4372261e+00
 -1.5305923e-04
 -7.8780043e-01
 -1.5898744e-03
  6.3715708e-01
 -2.5580737e-01
 -8.1870021e-05
  3.1693378e-01
 -1.1054046e-01
  1.4896418e+00
 -4.6690449e-01
  4.0577167e-01
 -6.7083567e-02
 -6.3652599e-01
 -4.8189849e-01
  8.9634361e-04
 -7.4237458e-02
 -1.0426264e+00
  9.7529775e-01
  7.5672235e-04
 -5.8033020e-04
  8.4911299e-01
 -5.3489517e-04
  3.8522706e-04
  1.5288593e-04
  7.8494137e-05
 -9.4008754e-04
 -3.2631151e-04
 -1.5367422e-04
  6.5320777e-04
  3.7589943e-04
  1.3829025e-02
 -3.1803056e-04
  1.9884041e-01
 -4.2813797e-02
 -7.6057535e-05
 -3.0917268e+00
 -1.1555777e-01
 -1.5901345e+00
 -5.3938162e-01
  8.1876729e-04
 -5.2132906e-04
  1.9779988e-02
  1.1342635e-01
  1.8540040e-01
 -1.4544635e+00
 -6.4673913e-01
  1.9925453e-03
 -9.1750431e-01
 -1.3627556e-01
 -4.8375452e-01
 -8.3159506e-01
  4.7776192e-01
 -1.3876152e+00
 -3.2818477e+00
 -4.5501384e-01
  3.1961754e-01
  1.7339460e-04
  2.4931070e-03
 -2.5474228e-05
  2.7877343e-04
  1.4593977e+00
 -8.6609691e-02
 -9.0192896e-01
 -4.9906093e-01
 -4.7018111e-04
  2.4282477e+00
  1.1571025e+00
 -4.1667285e-04
 -1.8792877e-04
  7.7437840e-02
 -3.3763384e-03
  1.2098107e-01
  3.4859200e-04
  1.5545986e-03
 -1.2289204e-01
  6.1146706e-01
 -8.6215435e-04
 -3.1815964e-04
  1.4919705e-03
 -2.6363973e-04
 -1.3073909e-01
 -6.3479769e-05
  4.7197787e-04
  2.1207932e-04
  3.0031821e-05
  8.5001819e-05
  4.3582007e-05
  5.7036302e-04
  1.7636659e-04
 -1.0189166e+00
  3.7863851e-05
  2.4815166e-04
  5.8840198e-04
 -1.7847543e-04
  5.1861509e-05
  2.6159425e-04
 -2.1518407e-04
 -1.0252658e-03
 -3.9417634e-04
 -4.1495336e-04
  2.6120566e-05
  8.4227868e-05
 -1.0387730e-04
  4.5678156e-05
  4.2341679e-04
 -2.3432178e-03
 -9.4123458e-04
  1.0920379e-03
  2.3797355e-03
 -1.2941814e-04
  6.3618092e-04
  3.5990612e-04
  3.3376636e-03
 -2.6176168e-04
 -5.2630238e-04
  6.6237239e-04
 -1.7280303e-05
 -5.1697792e-04
 -3.7250638e-06
  1.2546444e-05
  1.4569786e-05
 -4.5987535e-03
  1.3351740e-04
 -2.7773340e-04
  9.3497329e-06
 -1.9158553e+00
 -3.6273152e-04
 -2.4196485e-04
 -2.1877830e-04
 -3.6969091e-04
 -1.7421643e-03
  1.3379606e-03
  5.6555407e-04
  2.0851616e-03
  1.4803268e-04
  6.5075769e-04
  1.6952517e-03
  3.8555797e-04
  5.0656789e-04
 -9.5991683e-01
  8.9203948e-03
 -5.1748037e-01
  5.1235715e-03
 -2.6565785e+00
  1.7003077e+00
 -8.8341951e-01
 -6.1018567e-05
 -2.1729755e-04
  2.4723596e-04
 -1.8980070e-05
 -8.7324508e-02
  1.1955340e+00
 -7.6605648e-01
 -1.2332293e-03
  8.7640345e-01
 -6.6081887e-01
 -2.8707851e-02
 -3.8503620e-01
 -9.7429895e-01
 -4.4699141e-01
 -1.9010641e-03
 -3.7866149e+00
 -5.4547684e-03
  8.1447613e-01
 -1.0394497e+00
 -1.9754301e+00
  1.1707971e+00
 -8.3120728e-01
 -1.8860505e+00
  4.9462095e-02
 -8.9244209e-02
  8.3919792e-03
 -4.8338267e-01
 -1.2944524e+00
  5.2659531e+00
 -3.6263204e-04
 -7.4946336e-05
 -4.6975261e-01
  1.6045128e-01
 -7.9287070e-01
  1.0552504e-02
  9.3800807e-01
 -5.7555270e-01
  4.3489752e+00
 -8.4173456e-02
 -1.9274799e-04
  2.7600513e-04
 -2.5095362e-03
  1.8121132e-04
  2.7086683e-02
 -4.7707619e-04
  2.2463319e-04
 -4.9085087e-05
 -8.4803045e-01
 -4.0468898e-02
 -8.5822809e-01
 -1.5194972e-04
 -1.8155839e-01
  1.4830995e-02
 -9.7683841e-01
  2.3823669e+00
 -4.6949048e-02
 -2.6716691e-01
 -6.4953500e-01
  4.4243313e-02
  1.3781278e+00
  1.3061464e+00
 -7.6716114e-04
 -3.2656425e-01
  1.5744698e+00
  1.2612661e+00
  1.1500708e-01
 -4.8342012e-03
 -2.1702424e-02
  6.7627943e-01
  6.7167586e-01
  3.7665421e-01
  3.9582908e-02
  6.8310469e-01
  1.7278281e+00
  3.6606321e-01
 -1.9064650e-01
  1.0901157e+00
  1.1676449e-02
  1.9472944e+00
  7.0241910e-01
  3.4707941e-02
  4.9502906e-01
 -1.8450630e-01
  6.4608443e-01
 -4.0446531e-02
 -9.2986703e-01
  1.5746264e+00
  9.4201124e-01
 -3.5420129e-01
 -1.5205124e-01
 -3.1877391e-02
 -1.0780951e+00
 -4.6444458e-01
 -1.1990144e-04
  9.6704185e-01
 -1.1926372e-01
 -5.7617509e-01
  3.0579919e-03
 -5.1116222e-01
 -8.6958504e-01
 -2.7573475e-04
 -2.0207825e-01
 -1.2379531e+00
  8.1236073e-04
 -1.2880315e-01
 -2.4152904e+00
  1.3767482e+00
 -6.0989654e-01
  5.0307593e+00
 -3.4010184e+00
 -1.2218196e+00
 -3.9060411e-01
  5.6657773e-01
  1.1653069e-01
 -9.6046930e-04
 -6.9198542e-04
 -2.0561125e+00
  1.9320824e+00
  4.1242477e-01
  9.9718886e-07
 -1.0630141e+00
 -3.8608328e-01
  1.7334484e-01
 -2.7897337e-01
  8.4636945e-01
 -5.3368431e-01
  2.2456675e+00
  2.0781958e+00
 -1.1065213e-01
 -3.8258058e-01
  1.5490438e+00
  2.6888461e+00
  2.3058298e+00
  2.5151056e-01
 -6.6158485e-01
  1.7586856e+00
  1.4643077e+00
 -7.4885194e-03
  5.9981811e-01
  1.3075947e+00
  3.3550775e-01
 -3.2050580e-01
 -1.4043401e-03
  3.5014248e-01
  4.9913463e-01
  2.2723227e+00
  4.9718103e-04
 -2.2027068e-04
 -1.6716265e-04
 -2.7508040e-06
  8.1402063e-01
  1.4012099e-04
 -1.6896207e-03
 -5.4232287e-04
 -1.7185523e-03
 -1.4762452e-04
  3.3996541e-03
 -3.6119454e-04
 -1.6632330e-05
  3.7180816e-04
  6.4505926e-05
  1.9648689e-04
 -6.5280634e-05
 -5.2860507e-04
 -3.3855351e-05
 -7.4623449e-06
 -1.0588173e-03
  4.0838984e-04
 -2.0247437e-06
 -1.3424960e-04
  2.0415701e-04
 -8.6768760e-06
  1.8154259e-04
 -6.5366458e-04
 -1.4829602e-03
  8.6918898e-04
 -9.2029566e-04
 -1.3982697e-04
 -3.3902316e-04
 -3.3439999e-04
 -9.0783829e-04
  1.2533726e-04
  1.4368369e-04
  7.2712966e-05
  1.7410435e-04
 -5.5420620e-04
  4.4668728e-04
  8.3636062e-04
  1.8510276e-04
 -4.9349811e-04
  1.6632362e-04
 -4.4645081e-04
 -2.6426529e-05
  2.2015498e-04
 -1.0500265e-03
  4.7895347e-04
 -3.3284829e-04
 -4.1123392e-04
 -8.7886247e-06
 -2.9031161e-04
 -3.4546878e-04
  3.4838133e-05
  1.8942272e-04
  3.1062117e-04
  8.9882189e-05
  1.6263750e-03
  6.7221576e-05
 -5.5854733e-05
  1.8891241e-04
  1.9054962e-04
 -1.3707564e-04
 -5.5851972e-01
 -1.8908238e+00
  2.2594347e+00
 -4.6737928e-02
  1.0514623e+00
 -5.9897423e-04
  1.2016480e+00
  4.5076403e-01
  1.3242774e-03
 -1.9045440e+00
  1.3010888e+00
 -3.2384444e-03
  4.3929210e-01
 -1.0935494e-01
  1.7419207e-04
 -2.6831242e-01
 -5.6871659e-01
  2.5064221e-03
 -2.5699761e+00
 -5.8719795e-04
  4.1886833e-02
  9.5582671e-02
 -1.5543437e+00
  9.2486501e-01
  5.2229655e-01
 -5.4491553e-02
 -7.5681899e-03
 -1.8707230e+00
  5.5329537e-01
  8.9146972e-02
 -1.3104357e+00
 -1.6176644e-01
  1.4006364e+00
 -5.1772493e-01
  1.6093060e-01
  3.8719859e-03
 -5.8627740e-02
 -1.1038493e-01
  6.6191424e-03
 -2.5301919e-04
  7.3066396e-01
 -1.9860700e+00
 -1.7518805e+00
 -1.2901857e+00
 -2.3769581e-04
  6.1032206e-01
  1.0059903e-04
 -1.1691062e+00
 -1.4592273e-05
 -6.0981458e-01
  7.6157629e-04
 -3.6032678e-04
 -3.4114313e-01
 -3.0214767e+00
 -5.5477053e-01
 -5.6738847e-01
  1.9141978e+00
  1.3994918e+00
 -1.9016253e+00
 -3.4004081e-02
 -8.6521298e-02
  8.1214541e-01
  4.1996840e-01
 -1.6638772e+00
  2.2276452e+00
 -2.8158247e-02
 -5.8102471e-01
  3.8495854e-01
  1.5375562e-01
 -8.4884310e-01
  2.4508497e-01
 -8.0609822e-01
 -2.3202310e+00
  1.9694984e+00
 -3.9965883e-01
  2.3344049e-02
  2.2470264e-01
 -2.5407708e+00
 -9.8247856e-01
  2.4714382e+00
  6.7760998e-01
 -2.8110883e+00
 -8.7351441e-01
 -1.6258037e+00
  3.2459939e-01
  1.1148559e-01
 -1.1317508e-01
  1.7351636e+00
 -1.7433465e-01
 -3.5397575e-04
 -2.3863063e+00
 -6.2381470e-01
 -2.3852219e-01
 -3.1054544e-04
  7.0491546e-01
 -2.2747211e+00
 -6.8489951e-01
 -1.0459397e+00
  2.6022823e-04
  5.1617477e-04
 -8.2947761e-02
  1.0232332e+00
 -7.8958407e-02
  8.1746560e-01
  1.1050581e+00
  6.5220046e-01
  7.4483025e-01
 -1.2889613e+00
 -8.6553198e-01
 -7.6904577e-01
  1.6534317e+00
 -1.4813201e+00
 -6.6057205e-01
 -2.8872123e+00
  2.5945941e-01
  8.6895847e-01
 -1.9342229e+00
  3.8683441e-01
 -5.1547283e-01
 -1.8838584e+00
  1.8011226e-04
 -1.3945044e-03
  2.0311638e-03
  1.3904108e-01
 -7.0450675e-01
 -1.6079255e+00
  1.9125841e+00
 -1.1953295e+00
  4.1936359e-01
 -2.2955379e-03
 -2.0584528e-01
  8.5710071e-02
  1.2397373e-01
  1.8025627e+00
 -1.3293636e-04
  1.2718426e+00
  5.1587969e-01
  8.5647404e-02
 -5.6776160e-01
  1.6832228e-04
  1.0050709e+00
  1.2343940e-03
 -1.3611139e+00
 -5.2799577e-01
  7.0215756e-01
 -7.6043350e-01
 -9.5243782e-01
 -3.2905224e-03
  1.2201038e-01
  8.5918027e-01
  5.5512124e-01
  5.9899998e-01
 -5.9137092e-04
 -1.5681458e+00
  5.4022064e-04
  1.5900348e+00
 -4.2492291e-04
  2.3584250e-04
 -1.1138844e-01
 -1.4447125e+00
 -9.9362743e-01
 -4.4077983e-01
 -4.2187905e+00
 -6.4890635e-01
 -4.3997903e+00
 -6.4216048e-01
  2.9539199e+00
 -2.8517628e-02
 -9.7139455e-05
 -1.6357809e-03
 -1.2093661e-01
 -5.3899512e-02
  1.1955930e+00
  7.2772837e-01
 -3.8833266e-01
 -2.7042464e-04
  1.3913836e-04
  3.6816127e+00
 -1.7209269e+00
 -2.6812541e-04
  4.2257628e-01
  9.1709799e-01
  2.5536468e+00
 -1.9330533e-02
 -1.7931491e+00
 -2.2417854e-01
  4.0443239e+00
 -3.1249630e+00
 -3.1322290e-03
  1.7624584e-01
 -1.2020189e+00
  1.4483739e+00
 -9.3792307e-01
  6.3758716e-02
  2.8822670e+00
  2.1230020e-02
 -1.3020737e+00
  9.1757286e-01
 -2.4748731e+00
 -1.0417613e+00
 -8.8182068e-01
  3.7735519e-01
  2.3835504e+00
 -9.1144793e-02
  7.7618408e-01
 -6.0182613e-01
 -3.5329267e-06
  4.6888855e-01
 -8.0882475e-02
 -1.0533483e+00
  6.4765229e-03
 -1.2913561e+00
  8.2579855e-04
 -5.7153887e-01
  1.1346647e-01
  1.1258140e+00
  2.4531019e+00
  8.9566529e-01
  9.1504830e-01
 -2.0283312e-02
  2.4312295e-02
  1.4851043e-03
 -3.9930180e-02
  7.1389739e-05
  3.2766705e-04
  2.4023039e+00
  3.4198056e-03
 -5.0358591e-03
 -2.5184876e-03
  1.3010063e+00
 -8.4381888e-04
  5.3605374e-05
 -7.9871863e-01
 -9.8424347e-04
  4.5464835e+00
 -9.5891547e-01
  1.4096063e+00
  1.1942502e+00
 -3.9915520e-01
  1.4982422e-01
  1.3499885e+00
 -5.4728641e-04
 -6.5264709e-02
  9.2632782e-01
  2.7593045e-02
  7.0772570e-01
  3.6018062e-02
 -1.5264204e+00
  1.2771872e+00
  1.6799064e+00
 -1.0434489e-02
 -2.7111822e-04
  5.2342421e-01
 -7.7121055e-01
 -1.2562215e+00
 -3.7941681e-03
 -7.6512229e-01
  1.5311208e+00
  2.3086615e+00
  3.8431046e-04
  2.8473407e-03
 -2.7654140e-04
 -3.7414621e-04
  5.8827615e-01
 -2.6649818e+00
 -2.6782331e-04
 -2.4542664e-01
 -2.1689974e-03
 -1.4407608e-01
 -2.5210312e-01
 -2.4651816e+00
  3.6335397e-01
  1.3894632e+00
 -3.7975488e+00
  4.8367763e-01
  1.4072649e+00
 -5.8771390e-01
 -8.8829406e-02
  1.3810754e+00
  8.9523599e-02
  3.5329957e+00
 -3.2287905e-01
 -2.3211107e-01
 -1.3920336e+00
  5.2318072e-01
  1.4340987e+00
  3.9996862e-01
  1.2892058e-01
  2.2128909e+00
 -2.0864644e+00
  2.3410802e-01
  6.3057476e-01
 -1.4836856e+00
  3.7150046e-01
  6.3749175e-03
 -2.0400983e-01
  1.2220157e+00
  2.5214229e+00
  1.1872572e+00
  1.1818118e-01
 -1.1170906e+00
  3.0658039e-01
 -2.3322053e+00
  3.9642403e-01
  1.4713654e-01
 -2.4778370e-04
  2.5378028e-01
 -6.9698018e-01
 -3.6820697e-04
  1.8723192e+00
 -1.3370381e-01
  1.6697577e+00
 -5.6586361e-01
 -3.0166301e-01
 -1.4322131e-03
 -8.4133344e-03
 -1.4307968e-01
  1.4729868e+00
 -6.1607575e-01
 -1.0138841e+00
 -6.7342055e-01
 -4.9564946e-01
 -1.2558849e-04
 -8.8707038e-04
 -2.4672963e-03
  7.7523431e-04
 -3.0933143e-06
 -1.6421434e-05
 -3.9286591e-05
 -2.4984928e-04
  6.9357536e-04
  2.9491429e-04
  2.0923023e-04
  4.4339173e-04
 -2.3191539e-04
 -2.0168284e-04
 -9.9912977e-05
  3.2637236e-04
 -2.2559168e-05
  7.7031244e-04
 -5.5736542e-05
 -1.0303329e-03
 -5.3089228e-04
  9.9133322e-05
  9.7668567e-04
 -1.6975370e-03
  2.4972162e-03
  9.8814096e-05
  5.8465422e-04
  7.5579126e-04
  8.4878929e-04
  1.0298774e-04
 -2.6255433e-05
  1.8056196e-03
 -9.4250171e-04
  4.9825356e-04
  1.1221937e-04
 -6.8908656e-01
 -7.9488811e-05
  1.3115216e-05
  9.6791174e-04
 -1.3039064e-03
  4.0478171e-03
  1.4252600e-04
  7.6943054e-04
 -6.9552922e-04
 -4.5656640e-04
  2.4756484e-05
 -1.9335458e-03
  2.4693292e-03
 -5.8623322e-04
  5.2403245e-04
 -9.1034832e-05
 -8.5427181e-04
  8.4366271e-05
 -1.2726763e-05
  3.7207168e-01
 -2.1777047e-01
 -3.8875747e-01
 -1.2341285e+00
  2.1178105e+00
 -6.6612136e-01
  1.2757434e-01
 -1.9479039e+00
  8.4143836e-04
 -6.2473101e-04
  4.2892480e-04
  2.1361403e+00
 -2.4665546e+00
  8.1084746e-01
  2.5035924e-01
  1.0464256e+00
 -3.8710111e-01
 -1.3511544e-01
 -7.0136195e-01
  1.1207680e+00
 -1.1743048e+00
  7.9940808e-01
 -2.8979681e+00
 -5.9853864e-01
 -4.1713710e-03
 -6.8241519e-01
 -1.0526421e+00
 -3.8700613e-01
 -2.4632187e-04
 -7.0122558e-01
 -6.4857364e-01
 -7.2360647e-01
  6.8163973e-01
 -2.9243331e+00
  2.3445635e-01
  2.4497919e+00
  5.5191886e-01
  5.1306025e-04
  4.1684908e-01
  5.9667915e-01
 -3.6066887e-01
 -8.4895587e-01
  5.3754699e-01
 -6.1844730e-01
 -1.3054734e+00
  4.4083199e-03
  1.6228330e-05
  1.0527343e-01
  1.5786016e-02
 -1.8217448e+00
 -5.5996067e-04
  1.2417995e-02
  1.0574477e-03
  1.3410698e+00
  3.4156483e-01
  6.7361522e-01
  1.6327140e+00
  2.5517595e-01
  1.8517060e+00
 -1.2034342e+00
  1.0937896e+00
  3.4739554e-04
 -3.6555196e-03
 -5.3175613e-02
 -1.0724005e+00
 -2.5544092e-02
 -2.6233745e+00
  1.7250282e-01
  1.4999701e-01
 -3.2393685e-01
 -1.2186617e+00
  3.8935360e-02
 -1.7358850e+00
  1.1468884e-03
  6.0154792e-02
  3.2680497e-02
 -1.8155678e-01
 -3.3874533e-01
 -4.1436240e-01
  3.5720575e-01
  1.2125987e-01
  6.1742902e-01
  1.3632746e-03
  3.2270041e+00
  4.8915461e-01
 -1.4944351e+00
 -8.7558621e-01
 -1.2766379e-01
 -3.2310355e+00
  2.2646828e-01
  1.7582168e-01
 -2.3292999e-01
  1.7556020e+00
 -1.4048589e+00
 -2.3334651e+00
 -1.7084900e-04
  1.9469896e-02
  2.5228066e-02
  1.5028354e+00
 -1.8000318e-04
 -1.1134611e-03
  9.3794207e-04
  9.1393777e-06
  2.3169290e-01
  2.1010338e-04
 -1.2902147e-02
 -5.0373049e-03
 -1.5462832e+00
 -6.3325620e-01
 -5.2923250e-01
  2.5283372e+00
 -3.3307409e+00
  1.3794317e+00
 -5.2037644e-01
 -3.2761207e+00
  4.2772269e-01
 -3.9267069e-01
  3.9760553e-04
 -4.9046302e-01
  8.6788410e-01
 -3.1921055e+00
  3.7648134e+00
 -2.5543754e-03
  2.4236100e+00
 -2.9557902e-01
 -1.2965105e+00
  1.2969570e-01
  2.8957453e-02
  9.0804619e-01
 -2.0988517e+00
 -3.6865961e-02
 -1.2163676e+00
  3.8476491e-01
 -1.1341727e+00
  3.1490414e+00
 -4.5773587e-01
 -1.2867835e-01
  1.4776589e+00
  1.3959019e-01
 -1.6947527e+00
  1.1726979e+00
  2.7366838e+00
  2.2304127e-01
 -1.6653796e+00
 -3.1177527e-01
  7.5019564e-04
  1.4474953e+00
  3.2839510e-01
  4.3544781e-01
 -3.8851139e-01
 -2.7259260e-01
 -1.8227223e+00
 -1.4664683e+00
  8.2217991e-02
  1.0777334e-03
 -5.4684986e-04
 -4.0572941e-05
 -2.3767151e-01
 -1.2643007e-03
 -2.3842761e-02
  3.2812583e-03
 -1.7643124e-01
 -3.3114135e-04
  4.5131857e-04
  4.5914255e-04
 -1.2646608e-05
 -2.5783458e-03
  1.3932178e-04
  3.3969976e-04
 -2.1838944e-03
 -2.6037049e-04
 -2.5160838e-05
  7.0417540e-05
 -6.5545022e-04
 -6.7711517e-05
  1.0773482e-04
  1.6768638e-04
  2.5945905e-04
 -1.7234522e-04
 -1.7793479e-04
 -5.8458594e-04
 -3.4451447e-04
  2.2265872e-04
  1.1593568e-04
 -3.8877788e-05
  5.5787840e-04
  2.1058085e-04
 -1.2876433e-03
 -1.3514246e-04
 -6.0854945e-04
 -8.9553115e-04
  1.5335662e-03
  4.7536014e-05
  1.5709472e-01
 -1.0853010e-03
  1.2522701e-05
  3.8364182e-05
 -3.2892957e-04
  4.7214123e-04
  2.3667082e-05
 -1.9065104e-03
  7.1418681e-04
  8.6322450e-04
 -1.9531203e-03
  4.3307038e-04
  4.3053322e-05
  2.2227444e-04
 -1.4663482e-03
  1.6877316e-04
 -1.1554716e-04
 -7.9374789e-05
 -1.4318262e-03
 -1.6634187e-04
  5.0545781e-04
  1.6258389e-04
 -2.8781960e-05
  1.3190920e-04
 -1.0168377e+00
  3.1257606e-01
 -3.2991016e-01
  3.7402644e+00
  1.5787563e+00
 -2.0612808e-01
  9.5671443e-05
 -1.1948963e+00
 -1.7405684e+00
 -8.4568137e-01
 -2.7533479e-02
 -1.0022656e+00
 -1.7800283e+00
 -1.4323639e+00
  2.8373027e-01
 -4.6154408e+00
 -1.0865716e+00
 -9.5551497e-01
  3.0824469e-04
  1.1678132e+00
 -3.7846720e-01
 -3.6823678e+00
 -3.1663799e-01
  1.0250382e+00
 -5.7200164e-01
 -1.4416083e+00
  9.3415248e-01
  1.2027718e+00
  2.4947424e+00
  3.8706625e+00
  1.8592428e+00
 -8.0559522e-01
 -2.1089280e+00
 -1.5539254e+00
  3.7727889e-01
 -2.8852406e-01
 -9.4161086e-02
  6.6584903e-01
  9.7839594e-01
  2.7960363e-01
 -3.6284783e-01
 -5.5862385e-01
  3.3706209e-01
  2.1112635e+00
 -1.0749277e-03
  1.3008401e-04
  7.3831377e-04
 -3.4699900e-04
 -1.2661662e+00
  2.6008589e-05
 -2.1948785e-04
 -1.5538214e-03
  2.4159722e+00
  2.2463322e-04
  3.9063361e-02
  5.2511305e-02
  8.4193675e-03
  8.1777310e-01
 -3.2021922e-01
  1.7198503e-01
 -1.0316912e-05
 -1.7560868e-03
  1.2023149e-04
 -9.6993661e-04
 -5.1271529e-03
  1.6597545e-05
  4.1069288e-02
  4.9093843e-04
 -1.8806901e-02
 -8.6048574e-05
 -9.1255741e-04
  3.5336398e-02
 -1.4681695e-03
  2.1343927e-01
 -2.8597127e-04
  1.3968577e+00
  3.8462292e-04
  1.9965790e-01
 -3.1214161e-02
 -1.4624244e+00
 -4.3138361e-01
 -1.7834420e-03
  1.0669868e-01
  1.3495764e+00
 -9.7957838e-01
 -8.5769755e-01
 -1.4337523e-04
 -9.1515589e-01
 -1.6843998e-01
 -5.5391085e-04
  1.4470928e-04
  2.0182819e+00
  5.8005699e-03
  1.1756221e+00
 -3.9006924e-04
 -4.9907416e-03
 -3.4714522e-04
  1.5892414e+00
 -5.5367255e-04
 -3.4260651e-05
  7.6559782e-01
  4.2571482e-05
 -1.2736470e-01
  8.1148482e-04
 -2.2306608e-03
 -8.7693421e-05
  3.1320795e-01
 -2.8949275e-04
 -1.7886745e-05
 -2.8280850e-04
 -8.4478309e-04
 -3.6837571e-04
 -4.4940543e-04
 -3.4176721e-04
 -7.9050071e-05
  9.2777052e-05
 -8.5277730e-05
  3.2496278e-03
 -2.2745127e-04
  4.6013272e-04
 -5.1730918e-04
 -1.5891299e-05
 -6.7140994e-04
  5.7590299e-04
  1.2552533e-04
 -3.6911576e-04
  2.6225025e-04
 -3.3865214e-04
 -1.0718664e-04
  7.2439310e-05
 -1.0637461e-03
 -4.2515565e-04
  4.0426591e-04
  6.7298900e-04
  3.5287521e-05
  2.4324373e-04
 -6.0701906e-04
  2.6464884e-04
  2.8192186e-05
 -9.3109687e-05
  7.8658552e-05
  2.0393744e-04
  1.0316906e-04
  3.6306545e-04
  6.9212125e-05
 -6.0040747e-05
 -7.3570052e-05
 -4.8441296e-05
  3.8131700e-05
 -4.2009892e-04
 -1.0041961e-04
 -1.7862429e-04
  8.7701090e-05
  9.6976810e-06
  6.7304107e-05
  4.1614872e-04
 -3.2532925e-04
  1.0150554e-05
 -7.4671261e-04
  3.8166821e-04
  5.6178458e-05
  6.2128472e-01
  1.5810732e+00
  1.7961571e+00
 -3.7558565e-01
  4.3646426e+00
  2.0986474e+00
 -1.2318738e+00
 -1.8693497e+00
 -3.4484046e-03
 -3.2240909e-01
 -8.9038980e-01
  1.6522828e+00
 -3.4382699e+00
  2.7250769e+00
  1.1187558e+00
  2.6226917e-04
  6.6381413e-01
  2.7941992e+00
 -5.1453424e-01
  2.5764146e-04
  1.0542834e+00
 -1.7226974e+00
 -3.5682592e+00
  8.3111813e-03
  8.3142573e-01
  4.7087502e-01
 -3.0115628e+00
 -1.4208493e+00
 -8.1880826e-01
 -1.0326909e-01
  5.6273323e-01
 -1.3173243e+00
 -6.9428420e-01
  9.6761566e-01
 -3.7851944e+00
 -1.1058140e+00
 -1.6622210e-01
  6.8376423e-04
  7.9425263e-01
  6.5977350e-05
 -5.0363320e-01
 -1.2809024e+00
  7.6856500e-01
  1.2312230e+00
 -2.1859767e+00
 -1.3467859e-01
  1.6900561e-04
 -9.5200248e-04
 -7.6445128e-04
 -6.3076746e-01
  2.5053709e-04
 -7.4163324e-01
  3.8727503e-05
  2.2067594e-05
  3.8768569e-01
 -6.5712398e-01
  7.4937093e-01
 -6.3800174e-01
  8.2339555e-01
 -2.8398165e-01
  1.4541016e+00
  9.5113218e-01
 -4.6968052e-01
 -9.6250989e-04
 -6.3088596e-02
  5.1321872e-03
 -4.1059977e-01
 -2.8460875e+00
  1.7767671e-01
 -7.5709015e-01
  5.6499404e-01
 -1.5890588e-03
 -2.1444930e-02
 -7.6318957e-04
 -5.2036218e-02
  2.7085972e-01
  5.8262646e-01
 -3.5892555e-01
  6.0743767e-01
  2.4525665e-01
 -2.5667226e-01
  3.9546525e-01
  9.3175762e-04
  2.5727865e-01
 -1.1508192e+00
  2.2909038e+00
  4.8097403e-04
  1.4724860e+00
  1.2614609e+00
 -5.9396438e-02
  6.5026879e-01
 -3.1946758e-05
 -5.6401737e-02
 -1.0912319e+00
  6.6551346e-01
 -4.2327909e-05
  1.1066764e-01
  3.8289073e-01
  5.8868814e-01
  1.2488705e-04
 -9.9660590e-02
  2.9228471e-04
 -1.3316406e-01
  5.4436205e-03
 -4.7706108e-05
 -1.3847816e-01
 -9.9965931e-05
 -2.0419681e-01
 -9.4084434e-02
 -1.4170231e-01
 -1.6969756e+00
 -5.8673948e-01
  6.2987220e-01
  9.4236881e-02
 -7.0047963e-01
  1.2579110e-02
 -1.6708928e-03
 -2.8517628e-01
 -6.7531952e-04
  1.3415114e+00
 -3.3059225e+00
  1.4203121e-01
 -6.4663643e-01
 -4.3922794e-01
  6.7732280e-01
 -3.6279917e-02
  4.4671270e-01
 -5.5261206e-02
  2.9665101e-01
  9.7677201e-01
 -2.7852314e+00
 -2.2262470e-03
 -5.3177379e-02
 -3.0077558e-02
 -3.4464762e-02
  1.7896068e-01
 -2.2314491e-02
 -3.1322629e+00
  3.5757256e-01
 -4.5708549e-01
  9.7184867e-01
 -1.1751773e+00
 -1.7192683e+00
 -3.3843633e-02
 -3.9264306e-01
 -1.6672600e-02
 -6.1205852e-01
  2.0342171e+00
  2.6891346e+00
  4.9802974e-01
  1.3094330e-01
  1.2806956e+00
 -2.3651416e+00
 -7.5580513e-01
  4.4765398e-03
  9.3964282e-03
  2.3796920e-04
 -4.7583965e-04
  5.3899676e-01
 -1.3370631e-03
 -2.9996744e-01
 -2.5911677e-01
  3.1391703e-04
 -8.7127301e-06
  6.4296980e-04
 -1.9992591e-05
 -4.2954169e-04
 -4.1156280e-05
 -1.0992087e-04
  7.9874037e-04
  7.5442716e-05
  2.9320930e-04
  7.3846444e-05
  1.2796389e-05
 -1.8216670e-04
  2.7765086e-04
 -1.4205207e-04
 -2.1019328e-05
  2.6709307e-04
 -1.1359233e-04
 -1.0627451e-03
  2.7256404e-04
  2.2959517e-04
  5.4446585e-04
 -1.1626626e-03
  1.8488662e-04
 -1.6819774e-04
  9.1361973e-05
  1.9898656e-04
  1.8661888e-04
 -1.7974616e-04
 -2.4841685e-04
  1.3011803e-05
  3.2463064e-05
 -8.5846114e-06
  1.9985173e-04
  6.8320066e-04
 -2.7674196e-05
  2.4212956e-04
 -2.0391273e-04
 -3.3916719e-04
  1.8397551e-04
 -2.4565993e-01
  1.4096506e-04
  3.7762109e-04
 -8.0778293e-05
 -1.4934487e-04
  1.8267269e-04
 -5.1197076e-06
  6.7495144e-05
  7.5988908e-04
  3.1952077e-04
 -1.0086260e-04
 -3.1857169e-04
  2.7516781e-04
 -2.3664207e-04
  3.3626208e-04
  2.0226894e-03
 -9.1116829e-04
  3.2584419e-04
  6.7527406e-05
  4.1921533e-04
  6.5003405e-05
 -5.3232559e-04
  7.0929935e-05
 -1.0765189e-03
  7.0575153e-04
  2.0986045e-07
  9.7697093e-06
 -2.0654756e-05
  2.7260616e-05
 -4.9695893e-05
 -6.4366774e-05
  5.6851620e-04
  1.0918779e-04
 -1.0913274e-04
  1.6532894e-04
 -3.4399290e-04
  6.1109036e-05
  2.4899829e-04
  9.9484700e-05
  8.5200300e-05
  1.6593696e-04
  2.8312224e-04
  6.2401159e-07
  1.0973139e-03
 -1.7093367e-05
 -1.0218062e-04
  3.9290110e-04
  9.8584365e-05
 -1.4778179e-04
  2.9001743e-04
  1.2066247e-04
  5.0895291e-05
  7.2082016e-04
  3.8630763e-04
  2.1148221e-04
 -8.2555186e-04
  9.3891220e-05
  2.3238909e-04
  1.4061443e-04
 -1.9369560e-04
  1.6989284e-04
  6.2324184e-06
 -9.5542302e-05
 -1.1931726e-05
  4.0823259e-04
  1.9779183e-04
  1.6453210e-04
  9.3575509e-04
 -3.9091527e-01
 -2.8304327e-02
 -1.5753859e-03
 -2.7010110e-04
 -4.2808300e-01
 -2.9830812e-06
 -4.6860358e-01
 -1.9147921e-03
 -5.3944570e-01
 -1.1485842e+00
 -5.8606901e-04
 -1.3859172e+00
 -2.2529107e-01
  2.2019923e-02
 -1.9685042e-01
 -3.1480904e+00
  1.3275734e+00
 -6.1417259e-02
 -7.4566501e-01
  4.6319681e-01
 -2.1540475e+00
 -1.5219947e+00
  4.2996082e-01
 -9.7845264e-02
  9.6415812e-01
  9.7675997e-01
 -9.9273801e-02
 -1.7678058e-02
  9.4233185e-01
  6.0532063e-02
 -1.3794485e-01
 -1.2641147e-01
 -8.4803063e-01
 -9.7909290e-01
  2.5662229e+00
  1.7723883e+00
 -9.3209289e-04
  1.4840525e-03
 -3.7052351e-04
  3.1809959e-01
  2.2009749e+00
 -4.4719303e-01
  1.7984433e-01
 -3.7062689e-04
 -1.8690469e+00
 -4.4710243e-05
  5.8478443e-04
 -3.9675057e-01
 -1.3626276e-03
  1.7460443e+00
  2.2019870e-03
  9.2420791e-04
 -3.7677884e-05
 -6.4573401e-01
  4.6988530e+00
 -6.2885695e+00
  9.0006275e+00
 -1.0488001e+01
  1.3215522e+00
 -4.8572612e-01
  1.1014323e-01
 -6.4587307e+00
 -1.5015289e+00
 -2.6133463e+00
 -7.3390788e-01
  3.5127046e+00
 -9.4111443e-01
  1.8525853e+00
 -1.2645707e-01
  1.3772064e+00
 -4.2235380e-01
 -3.2211649e-01
 -1.7475976e+00
 -4.6686041e-01
 -3.5258400e-01
 -1.8897283e+00
  1.2915851e+00
 -2.5758892e-01
  1.6632921e+00
 -1.5560534e+00
  1.5234118e+00
 -1.2448562e+00
 -2.8977149e+00
  1.3321956e+00
 -2.2426798e+00
  6.4938682e-01
 -7.0213342e-01
 -3.1704325e-02
  5.4432887e-01
 -2.0198712e+00
 -1.7161159e-01
 -4.8753357e-01
  1.7819354e-01
 -2.4023073e+00
 -1.4299197e+00
 -7.0033394e-02
  6.9912389e-02
  1.0593677e+00
 -3.9107397e-01
 -7.2399601e-02
  1.7598882e+00
 -2.2867577e+00
  2.1101811e-04
 -2.6719623e+00
  1.7974035e-01
 -8.0958462e-01
  1.6061576e-01
 -1.1327294e+00
  4.1378231e-04
 -2.6865041e+00
 -7.5586283e-01
 -4.8819616e-01
 -4.6207552e+00
  3.4172899e-01
 -1.2632506e+00
 -2.8889942e+00
  2.0066105e-01
 -7.1893907e-01
  6.5096301e-01
 -5.6947362e-01
  2.3942714e+00
 -3.0209222e+00
 -4.4396105e-03
  9.6634853e-01
 -1.5605739e+00
 -5.8201522e-01
  1.3427138e-02
  1.9321566e-02
 -2.3549618e-01
 -6.3825756e-01
  3.7052448e+00
 -4.1527478e-03
  3.8665250e-02
  1.5776711e+00
  7.4591768e-01
 -2.8058517e+00
 -2.9849392e-01
 -1.6081090e+00
 -1.8287431e+00
  4.3821001e-01
 -2.5074193e-02
  3.7439697e+00
  5.9740114e-01
  2.8842103e+00
  4.5920801e-01
  1.8939433e+00
 -3.9373559e-01
  1.3747387e+00
 -2.7940768e-01
  6.3461684e-02
  6.1021703e-01
 -2.0739567e+00
 -1.8896767e-01
  7.2152470e-03
 -1.0019935e-03
  2.0803788e-04
 -7.2569832e-02
  4.8902035e+00
 -9.9771132e-04
 -1.3287826e-02
 -7.7195890e-04
 -1.0634961e+00
 -2.3667765e+00
  3.4625428e+00
  7.8627819e-01
  5.6285605e+00
  8.1396359e-01
  2.3193126e+00
  1.3731849e+00
  3.7636573e+00
 -1.8398122e+00
 -8.1534165e-01
 -1.6479898e-02
  4.2649083e+00
  6.8510044e-01
 -2.5852874e-01
 -4.7883663e-02
  2.1104505e+00
 -1.9161419e+00
  3.0705175e+00
 -2.5021088e+00
 -1.6964288e-01
  2.3841231e+00
  2.1547756e+00
 -1.2872918e+00
 -4.7442976e-01
  2.1799798e+00
 -1.8390989e+00
  2.2459159e+00
 -2.9075794e+00
  3.6787879e+00
 -3.0288446e+00
  2.7892740e+00
 -3.0119328e+00
 -1.0326287e+00
  4.5778894e+00
  2.4531458e-01
  2.1025600e+00
 -2.3263426e+00
  1.2115648e+00
  3.3202797e-01
  1.3120409e+00
  2.6857386e+00
  2.2612365e-01
 -1.1136142e+00
  5.5135284e-02
 -2.7529979e+00
 -1.0313828e+00
 -6.3682637e-05
 -5.5846795e-03
 -1.0153848e+00
 -2.7316227e+00
  6.8727229e-03
  6.2454189e-04
  2.9646516e-01
  2.3886641e-03
 -1.5767318e-01
  4.7332731e-01
 -1.1792574e+00
 -5.7200438e-01
 -2.6959965e+00
  1.0480732e+00
  8.9979026e-04
  4.4398095e-02
 -6.9723576e-01
  1.5638540e+00
  1.5765865e-01
 -7.3267931e-01
  7.3868358e-01
 -8.2985973e-01
 -3.8343080e-04
  5.4761680e-04
  1.7433652e+00
  2.9560158e-02
 -2.2038493e-01
  6.7534381e-01
  5.3488648e-01
  8.2964951e-01
 -1.7043474e+00
  7.2671556e-01
  1.2590820e+00
 -7.7364075e-01
  1.6629813e+00
  6.7941976e-01
  8.9565450e-01
 -2.6703749e+00
  2.3588619e+00
  8.9327618e-02
 -4.8696300e-01
  2.0616309e-01
 -3.1902936e+00
 -4.1516083e-01
  3.9677960e-01
  1.0122195e-03
 -9.4541363e-02
 -1.7135817e-01
  3.8334724e-01
 -7.8448877e-02
 -8.9307570e-01
  1.1674362e+00
  1.9570422e+00
  1.1587019e+00
 -2.4106784e-03
 -2.3603700e-01
 -1.8306622e-04
  5.2939850e-01
 -4.3628625e-05
  8.7183654e-01
  2.1511143e-01
 -9.3416209e-05
 -5.7870178e+00
  3.5445492e+00
 -9.6636734e+00
  1.3009728e+01
  1.5123584e+00
 -2.9320359e-01
 -3.0649104e+00
  5.8697987e+00
  3.7263300e+00
  1.9092237e+00
 -2.2781504e-02
 -4.3931565e+00
  3.3954318e+00
 -2.4833953e+00
 -9.5755112e-01
 -6.0684419e-01
 -5.5473495e-01
  3.0215451e-01
  1.7536336e+00
 -2.8384694e-01
 -4.7668390e+00
  1.2346246e+00
  2.8186560e+00
 -6.1652593e-02
 -5.4803926e-01
 -6.4745232e-02
  1.7411892e+00
  9.5720118e-01
 -6.2747568e-01
  3.0577338e+00
 -3.2141349e-01
  1.1663766e+00
  3.2109913e-01
 -3.5411496e+00
 -1.6582714e+00
  1.0969789e-01
  1.4594613e+00
  7.6926816e-01
 -1.4641181e+00
  1.0998689e+00
 -1.1951181e+00
 -8.5515416e-01
 -1.3987604e-01
 -2.8182437e+00
  4.4841905e+00
 -3.5905952e-03
  3.3914787e-03
  2.1300808e-01
  4.0645293e-05
  2.7522261e+00
  4.0352812e-01
  8.7555927e-01
 -1.3893043e+00
 -5.6239223e-01
  1.0562790e-01
  3.3644879e-01
 -2.9326179e+00
 -5.0973281e-04
  3.9582947e-01
  3.4195359e+00
  5.5978870e-01
 -6.4849383e-01
  2.1721704e-03
 -9.4610304e-01
 -1.4682345e+00
 -1.5725383e+00
 -2.0773971e+00
  2.1787047e-01
 -3.2981494e-01
  4.5587360e-03
 -7.2612637e-01
 -1.3673957e-01
 -7.2297364e-01
  7.9736440e-04
  1.2362787e-01
 -3.0069690e+00
  3.6112869e-01
 -5.4381959e-02
  6.0954005e-01
 -7.7615863e-01
  5.2359194e-01
  7.4357063e-02
  2.4057560e-01
  1.9553612e+00
 -1.0458646e+00
 -1.1549890e+00
 -2.2467549e+00
  3.7927285e-01
 -4.8428464e+00
  1.1693242e+00
 -2.3176715e-02
 -3.7063129e-02
  3.4310624e-01
 -2.3679645e+00
 -7.8634053e-01
 -6.3152716e-02
 -6.3725603e-01
 -2.9518330e-01
 -1.1474713e+00
 -4.9742994e-05
 -2.6194658e-04
  5.3682113e-01
  4.7290128e-01
 -2.5328984e+00
 -1.0671401e-02
 -1.3056877e-01
  5.3257501e-04
  1.3089002e+00
  5.1787909e-04
  4.2958217e+00
 -1.1262984e+00
  3.9216793e+00
 -4.5760345e-01
 -9.1981035e-01
  2.7013516e-01
 -3.2640305e-01
  2.2951691e+00
 -2.8845868e-01
 -5.1569074e-01
 -2.1492782e+00
  5.0370157e-01
 -2.6722906e+00
  3.3341983e-01
  2.8443935e+00
 -1.0040639e-03
  1.1418150e-01
 -1.0004964e+00
 -3.7198153e-01
  1.4965781e+00
  5.1134658e-01
  1.0019197e-01
 -6.0758704e-01
  2.3242071e+00
  8.0133803e-02
 -5.2849203e-01
  3.6018714e-02
 -6.4466196e-01
 -9.5969194e-01
 -8.6027682e-01
  8.0236578e-01
 -2.7824900e-01
 -6.9257542e-02
  2.0087469e+00
  2.6528451e+00
 -4.7746402e-01
  4.6587673e-01
 -1.1448128e+00
  1.1927290e+00
  1.9233912e+00
 -3.2328540e-01
 -5.2112836e-02
 -1.1011012e+00
  1.7662355e+00
  1.0689939e+00
 -2.8581027e-04
 -1.1485582e-02
  1.4504442e-01
  1.8627046e+00
 -1.9275428e-03
  5.5478513e-01
 -1.8904050e-01
  2.2254253e-03
 -5.3342000e-02
  3.6975483e-03
 -2.2397356e+00
  7.2435415e-01
 -5.1415598e-01
 -3.6429602e-01
 -2.8880619e-02
  1.0073942e-01
 -6.7986809e-02
  6.2766063e-01
 -2.1267532e-01
  1.6044401e-01
  1.4425800e+00
  4.7794766e+00
  2.9042605e-01
  1.1946309e+00
  5.5388457e-01
  2.5717988e+00
 -1.4075633e+00
  5.1595521e-01
 -3.2075450e-02
  2.0466619e+00
  3.1633711e+00
  3.4588644e-01
 -3.8334677e-01
  2.7707183e+00
 -3.5003772e-01
 -1.5377516e+00
 -3.1942410e+00
  4.1147238e-01
  3.4463018e-01
 -1.7803899e+00
  1.1893363e+00
  4.1382277e-01
  1.5349051e+00
  2.4645207e+00
 -2.8483510e-01
  1.0555453e+00
  1.2508090e-01
  4.6115623e+00
  2.1451981e+00
  4.2935577e-03
 -4.3113264e-01
 -2.9766333e-01
  5.1897526e-01
  8.2409777e-02
 -7.2326434e-01
  2.4956129e+00
 -2.2375063e-04
 -9.1704585e-02
 -9.7954959e-02
 -8.9054358e-01
 -1.2987771e-02
  1.8975240e-01
  7.9064834e-04
 -1.5518950e-01
 -3.6250886e-01
 -8.1962137e-04
  1.0473264e+00
 -2.2784536e-01
  8.7988555e-01
 -6.4059900e-04
 -2.1656060e-05
  1.0802896e-03
 -7.1489429e-03
 -4.1799959e-02
  7.1114469e-01
  7.7142066e-01
  3.9438975e-01
  2.1434897e-01
  2.9512364e-01
  1.1655370e-02
 -7.8277791e-01
 -9.1714007e-01
 -4.1009256e-01
  7.3312390e-01
  2.7207416e-01
  5.7524639e-01
 -6.4367789e-01
  4.0811539e-01
 -4.3105066e-01
 -1.0976996e-01
 -8.4012921e-04
 -9.4358206e-02
  5.5558240e-01
 -5.6015730e-01
 -3.8323894e-01
  1.5885660e-03
 -1.2062610e+00
 -1.7582287e+00
  2.6563019e-01
  3.2787383e-02
 -7.4908125e-01
  4.5177740e-01
  5.5782294e-01
  1.6165835e-01
  5.8419883e-02
 -1.8844316e+00
  9.5601708e-02
 -2.5581694e-03
 -5.4437953e-01
  1.5291636e-05
 -1.3221079e-04
  9.5918171e-02
 -3.8266429e-01
  1.9083649e-04
  4.1782576e-01
  5.1078838e-03
  1.5156928e-03
  1.4321613e-01
  1.8476154e-01
 -4.4847551e-01
  1.0566306e+00
 -9.1979027e-01
 -1.4714395e-02
 -6.4307779e-01
  1.7928833e+00
  4.4715533e-01
  1.9669902e-01
  9.5896685e-04
  4.0983966e-01
 -6.5056658e-01
 -8.1514791e-02
 -5.3866087e-03
 -6.0825515e-01
 -1.9575417e+00
 -1.4109635e-01
  7.3052013e-01
 -1.4174291e+00
 -1.2910327e+00
 -7.4980062e-01
 -2.9581091e-01
 -6.3929939e-01
 -3.8130188e-01
  6.3546905e-03
  3.3485121e-01
 -8.3062899e-01
 -1.5389590e+00
 -1.2149623e-01
  1.0109537e+00
 -3.6532632e-01
  3.5404697e-01
 -5.5033278e-01
 -2.9012787e+00
  3.7471890e-02
 -4.0924203e-02
 -2.1479611e+00
  2.8728141e-02
 -8.3199197e-01
  1.4646897e+00
  5.7857591e-01
  2.4061099e-01
 -1.7734939e-02
  4.8913818e-02
  2.7234438e-01
  2.2026069e+00
 -4.5008275e-01
  4.4999930e-01
 -1.3846124e-03
 -3.6275735e-01
 -1.6920994e-01
 -2.6550202e-03
 -2.1271524e-03
 -6.5299459e-02
  3.8409787e-01
 -9.0977247e-04
 -3.6250117e-01
  2.0088699e+00
 -5.9926152e-01
  6.9521666e-01
  4.3796279e-04
  6.4238802e-02
  1.1768861e-03
 -6.5435702e-04
  4.1754585e-04
  8.0561644e-05
 -1.9683528e-01
  2.3388772e-03
  1.1397760e-05
 -5.5222750e-01
  2.5424399e-04
 -2.1485370e-04
 -1.2239076e+00
 -1.7198423e-02
  1.0164637e-01
  2.8019070e-04
  2.5085437e-01
 -2.8332055e+00
 -2.8552034e+00
  2.6759165e-04
 -3.6598739e-04
 -5.7374276e-02
 -1.7878494e-01
  8.5078663e-01
 -2.8653699e-03
 -1.2867372e-04
  9.8052062e-04
 -2.7689288e-04
  1.3623761e-02
 -2.2418352e-03
  2.9685246e-02
 -3.5317542e-04
 -9.3295181e-01
 -1.6257872e-01
 -5.0222618e-04
  4.6055974e-04
 -1.9044100e+00
 -6.1922702e-03
  8.8856072e-04
  7.0946060e-02
 -1.6110437e-03
 -2.7599114e-01
  1.4581138e-04
 -1.1939229e-01
 -1.9929954e-04
  3.2326255e-03
  7.0440859e-02
 -3.9092124e-01
 -1.2470152e-02
 -1.5626081e+00
  3.4618303e-01
  1.5684174e-03
 -2.5945852e+00
  2.8592296e-04
  2.0137207e-04
  3.5566074e-01
  1.3177903e-01
 -4.4113091e-01
 -1.4167954e-02
  1.5395306e-01
  2.3738272e-03
 -1.2732666e+00
  1.3076770e+00
 -3.1725554e-05
 -1.0613321e+00
 -6.6046447e-01
 -8.6649120e-01
 -6.0872924e-01
 -5.3265047e-01
  9.0412468e-01
  3.5805860e-01
 -1.1189500e-01
 -2.7494273e+00
  3.0994105e-01
 -1.2716875e+00
  4.9222481e-01
 -2.3570530e-01
  1.5357018e+00
  8.9558065e-01
 -8.3538455e-01
  1.1755927e+00
 -1.3616225e+00
  4.7864267e-01
  2.3267361e-04
  7.9186738e-02
 -3.1413767e-01
  7.9520345e-01
 -9.3083028e-03
  6.2158459e-04
  3.6581801e-05
 -7.9861283e-03
 -5.3132314e-04
 -4.8311747e-05
  1.4787203e-01
 -9.9200883e-04
 -4.4511664e-03
 -1.6248395e-04
 -4.9616478e-02
 -2.2613932e-01
  3.8015036e-04
 -3.0660277e-04
  1.2079499e+00
 -1.7233805e-03
  2.1481262e-04
  2.9704561e+00
 -1.7163420e+00
  4.8086949e-02
  3.3698041e+00
  1.9808488e-03
 -2.5185724e-05
 -1.2478964e+00
 -4.6868551e-01
  5.6154746e-01
 -4.3869683e-01
 -3.8703415e-01
 -3.6996210e+00
  5.2990985e-01
  4.7264153e-01
 -1.2447687e+00
  1.2563609e-01
  1.4503083e+00
 -1.0323676e+00
 -6.8847370e-01
  1.4991479e-04
  1.7988068e+00
  8.0947363e-01
  2.7596023e+00
  4.4181921e-02
 -4.6718554e-04
  9.5107532e-01
 -1.5169358e-01
 -1.1495267e+00
  1.5063750e+00
 -3.7319008e-01
 -2.1739986e+00
 -1.2411442e-01
  7.2898501e-01
  1.1039971e+00
  2.1668050e+00
  2.3103876e+00
  6.2628686e-01
 -2.0317526e-01
  1.3408659e+00
 -2.0732076e-01
  1.9961306e-01
 -3.1021649e-01
  3.7635982e-04
  2.3410124e-01
  1.3493713e-02
 -1.0452193e+00
  9.8762602e-01
 -7.0107533e-03
 -4.1912819e-04
  7.7133870e-04
 -1.2605153e-02
  1.4237604e+00
 -3.6787515e+00
 -1.7565376e+00
 -2.3487887e+00
 -2.9139522e-02
  2.8616890e-01
 -1.1592900e+00
  3.1071432e+00
  3.3124286e-01
 -7.8168678e-01
 -5.7358623e-02
 -1.0675798e-03
  2.7170012e+00
 -9.8954430e-03
  1.2484075e+00
 -5.7074461e+00
 -1.7242360e+00
  3.3835080e-01
 -1.4893901e-01
  4.4220147e+00
 -4.2510018e+00
  1.8947593e+00
 -2.1318633e-02
 -1.4628273e-03
 -2.9122152e+00
 -1.7724415e+00
  4.7442608e+00
 -5.3837788e-01
 -5.1901591e-01
 -3.1115270e+00
 -8.2760775e-01
 -2.0005672e-01
  2.1133275e-01
 -2.4845164e-01
  2.8987417e-01
  9.8855519e-01
  2.0057902e-01
 -4.9280730e-01
 -1.3546826e-01
 -2.4844935e+00
  3.9327241e-02
 -1.0149435e+00
  7.4606860e-01
  2.7331815e+00
 -7.3251803e-04
 -9.0527624e-01
 -7.0818371e-01
 -5.3161567e-01
 -4.9904734e-01
 -8.7207234e-01
  2.1174382e-01
  1.0686660e+00
  1.7362192e+00
  9.1118556e-05
 -7.5536460e-05
  6.1220035e-04
 -2.6954475e-04
 -3.0034568e-04
 -1.3193482e-04
  2.0615731e-05
  1.1622460e-04
 -1.5628399e-04
  7.7882003e-05
  2.6066005e-05
 -8.9903020e-05
 -5.3307525e-04
 -3.1606478e-04
  1.5371839e-04
 -4.2062406e-05
 -5.8397563e-04
 -7.4589298e-05
 -5.0616334e-05
 -2.9215895e-05
  1.2592168e-03
  5.5764365e-05
  8.5661927e-04
  7.6100645e-05
 -6.9296824e-05
 -2.5583652e-04
  3.0453640e-04
 -6.5216947e-05
  9.0454734e-05
  3.5988638e-04
 -1.0611383e-04
  2.9351274e-04
  7.4805866e-05
  1.4803206e-04
  2.4350417e-04
 -5.2102865e-04
  4.3401989e-04
  1.5080383e-04
  6.1508804e-04
 -1.4198301e-04
 -2.2719415e-04
 -1.9710936e-04
  1.0156391e-04
  1.6075252e-04
  3.3147251e-05
  1.8083134e-04
  2.1543693e-04
  5.6664366e-04
  1.9042798e-04
  2.8865656e-05
  8.3676522e-04
 -4.5599064e-04
 -2.4206148e-04
 -7.7594206e-04
  1.2368336e-04
  1.0038743e-04
  2.5267911e-04
 -2.3726796e-04
  1.7657837e-04
 -2.1699190e-04
 -6.7315297e-04
 -1.9084418e-04
  1.1912199e-03
 -8.9181725e-05
 -9.9228178e-05
  7.8484649e-05
 -4.8380406e-04
 -1.7295996e-04
  2.0881354e-04
  1.3370332e-04
  3.4955205e-04
  2.9825456e-03
 -1.5058287e-04
  2.6070204e-05
  1.5615266e-04
  8.1039871e-05
 -1.5056639e-05
 -5.9545494e-04
  3.8776521e-04
 -9.5426876e-06
  1.5831420e-04
 -4.3460241e-05
 -6.3752907e-04
 -6.2416737e-05
 -1.0897514e-04
  3.1401607e-04
 -8.1353603e-05
  4.3106545e-04
  1.3634955e-04
 -1.9401866e-04
  2.8800303e-05
 -3.2698736e-06
  4.0257236e-04
  4.6522762e-03
  1.1715350e-05
 -7.0374772e-05
  3.4385903e-05
 -2.4248741e-03
 -8.1243849e-04
 -1.0241161e-04
 -1.3292397e-04
  1.1794788e-04
 -9.3431729e-05
  3.9805274e-04
  2.4723756e-04
  2.2180872e-04
 -1.7889963e-04
 -2.5673883e-04
 -2.8727782e+00
  2.6467936e+00
 -9.4573796e-01
  3.4088001e+00
  2.2629483e+00
 -1.7501628e+00
  3.3653855e-01
  4.9925637e+00
 -3.8799841e-02
 -1.2712908e+00
 -2.0017307e+00
 -2.0982134e+00
  7.1896535e-01
 -5.6852386e-05
  2.3369099e-01
 -1.2516731e+00
 -1.1031383e+00
 -3.0144663e+00
 -1.4327273e-01
 -1.3471441e+00
  3.9809176e-01
  3.9164236e-01
 -6.7904717e-01
  1.6412094e-01
 -2.0299907e-01
 -6.1803776e-01
 -2.2997868e+00
  4.2142434e+00
 -3.1504568e-03
  3.0833089e+00
  3.9262462e-02
 -1.6131701e+00
 -1.7632735e-01
 -2.7575190e+00
  3.3793285e-01
  2.2021501e+00
  1.0558078e+00
 -5.4084123e-03
  1.7893004e+00
  1.9212665e-01
  2.9459646e-01
  2.0144606e-02
 -2.0911739e+00
 -2.4911460e-01
  2.5940597e+00
 -5.4880220e-04
 -3.2431183e-03
  1.6171733e+00
  4.2827752e-01
 -2.6134689e+00
  4.9835129e-05
  4.7463789e-03
  1.2362930e+00
  5.5004101e+00
 -6.6563362e-01
  1.2052164e-01
  3.1169336e+00
 -1.0199931e-02
  3.4335759e-01
 -2.0693189e-01
  1.4417977e+00
  4.7031498e+00
 -2.1073501e+00
 -2.9805136e-01
  1.0442967e-01
  6.4788234e-01
 -9.3349391e-01
 -3.2575515e-01
  5.1358968e-01
 -1.2285804e+00
  8.8861030e-01
  1.0348104e+00
  4.2074907e-01
 -9.9766493e-01
  1.7161819e+00
 -1.4792381e-01
 -1.4698733e+00
  1.2667112e+00
 -1.7911201e+00
  1.6347721e+00
 -5.6484634e-01
 -1.7004187e-01
  3.5660902e-01
 -5.8042128e-02
  3.9418139e+00
  3.6759989e+00
 -2.6956557e-03
 -3.6043899e+00
  8.4842169e-01
 -6.8021148e-02
 -5.8062303e-01
 -8.5124242e-01
 -7.5566739e-01
  2.0063400e+00
  2.0320978e+00
  1.2342482e+00
 -1.1694863e+00
  1.5666177e+00
  9.9298143e-01
  1.2036164e+00
  1.8671501e-02
 -2.5615499e+00
 -7.9053682e-01
 -6.9665402e-01
  4.4194525e-03
  1.2556355e+00
  3.8244214e+00
  1.4003036e+00
  1.6595855e-03
  5.7717116e-04
 -1.8588738e-05
  2.6137047e-04
 -6.9952488e-01
  1.8411818e-04
 -1.5336018e-04
 -6.4464058e-03
  1.2905513e-03
  1.9019118e-03
  6.1285289e-05
  6.1877393e-03
  7.6456745e-05
 -6.5043138e-04
 -4.3929829e-03
  3.7159151e-01
 -4.6745551e-04
 -2.7087887e-04
 -3.9423066e-01
 -2.2615479e-05
 -1.5004709e-01
 -4.4654131e-01
 -3.2972016e+00
 -3.9364088e-01
  6.8151608e-02
 -5.6344068e-01
 -8.2324988e-01
 -5.6865722e-01
 -3.8875758e-05
 -2.2387952e-02
 -2.6880470e-03
 -1.7190880e+00
 -6.6929958e-03
  1.6293759e-02
 -3.0294633e-02
 -1.7688826e-02
  1.2925799e-02
  7.9569186e-04
 -3.3993665e-03
 -3.5695061e-01
  2.7639034e-01
 -5.9183491e-03
  1.0523109e-01
  1.7192779e-02
  1.3225058e+00
 -5.8763759e-04
  1.1245253e-04
  4.1283574e-03
 -5.9231580e-04
  3.5890876e-04
  8.2892577e-05
 -3.7674673e-04
  2.3818150e-04
 -3.7401309e-04
  1.9825476e-03
 -2.6801026e-03
  5.6956553e-01
  1.0969555e-04
 -1.2784405e-03
  1.7640333e-03
 -8.7281513e-01
 -5.0136924e-04
 -6.7907250e-01
  5.0004035e-02
  4.8387337e-01
 -5.6599304e-02
  6.4689577e-01
 -1.6312361e-01
  1.0055140e+00
 -2.4186423e-01
  9.5227247e-01
  3.6304787e-05
  4.2498118e-01
  2.6953491e-04
  1.6363974e+00
  7.2344327e-01
 -4.1277418e-01
  2.6293984e-01
  7.4392647e-01
 -1.6091578e+00
  5.4838037e-01
  2.0313221e-01
 -6.4047606e-04
 -1.4592664e-01
  9.3411362e-01
  7.7466732e-01
  7.7062160e-01
  2.0797712e-01
  1.5745877e+00
 -4.7337708e-01
 -3.0657414e-01
 -7.5000391e-04
 -5.2108091e-01
  1.0174534e+00
 -2.3115606e+00
  2.7957854e-01
 -1.1438486e-01
  4.5441711e-01
 -9.1882773e-02
 -2.2030824e-03
  3.6670093e-03
 -6.6565175e-04
  4.4696026e-05
 -3.7869620e-01
 -1.0837876e-03
  1.9201803e-01
  3.7445419e-04
  7.9545045e-01
  4.7574186e+00
  1.3616529e+00
  5.8648652e-01
 -4.0507035e+00
 -6.5764457e-01
  7.8672564e-01
 -4.2297134e-01
 -1.0896988e+01
  6.8196341e-02
 -1.8662807e+00
 -5.0965351e-01
  2.1436546e+00
 -6.1133641e-01
 -3.3647755e-01
 -7.3500413e-01
  2.8777094e+00
 -1.8502035e+00
 -2.9868326e-01
 -1.8202060e+00
 -4.6531999e-01
  1.6815088e+00
 -1.9836977e+00
 -1.9659649e+00
  1.1549276e-02
  9.5889467e-01
 -1.6966128e+00
 -8.2923961e-01
 -9.6187271e-02
  3.3681688e+00
 -1.3278179e+00
 -2.5311639e+00
  3.2378921e-01
  1.3228054e-01
 -1.1215205e+00
  1.1055934e+00
 -8.7519956e-01
 -1.1188523e+00
  5.3762283e-02
 -1.0479243e+00
 -1.0542569e+00
 -7.2408132e-02
 -6.0368115e-01
  1.4456756e+00
 -1.3903403e-01
 -5.4270357e-01
 -5.4032093e-01
 -6.5068078e-01
 -7.9927260e-01
 -1.0255477e-01
 -2.2118428e+00
 -2.4827078e-03
  2.2924510e-01
  2.9984722e-01
  3.3120072e+00
  1.1168253e-01
  3.2094651e-01
  7.0844072e-01
 -6.2385116e-02
 -5.7915956e-01
  3.1094131e+00
 -1.7212213e+00
 -3.6070614e+00
 -3.0806884e-01
 -4.2944755e-03
 -5.6659179e-03
  1.3949773e+00
 -2.9374340e-03
  5.8345348e-01
 -2.1094352e-01
  3.1223354e+00
 -7.1773028e-01
  1.2352276e-01
 -4.8789835e-01
  2.1475230e-03
 -5.3120386e-02
  6.0242116e-01
  2.0669234e+00
  2.7207127e-02
  1.3061785e+00
 -1.6624180e+00
  1.0516839e+00
 -6.8791199e-01
  1.1911286e-01
 -6.0366907e+00
 -2.9768154e-01
  1.7648044e+00
  2.1245403e-03
  2.2757895e+00
  4.3032079e+00
 -4.2224413e-01
  2.1507981e-01
 -1.1810254e-01
 -3.2627757e+00
 -2.1574625e-01
  4.2176023e-02
  8.0924040e-01
  7.1289530e-04
  1.1169633e+00
  1.4472134e-01
 -1.4085550e-05
  5.6500212e-05
 -6.3507581e-01
 -7.7650708e-01
  8.8865715e-01
 -5.0426312e-03
  8.8681380e-04
  1.0697873e-05
 -1.6733229e+00
  1.6563112e+00
 -4.0689394e-01
 -2.1934962e-04
 -3.8028229e-02
 -2.7087131e+00
  1.3343464e-01
 -4.7746126e-04
 -2.0456574e+00
  9.1921091e-02
 -6.2911883e-02
 -2.2858729e+00
  1.6478301e+00
 -2.8981211e+00
 -8.2992792e-02
 -4.5340403e-04
 -5.4888111e-01
 -1.8325021e+00
 -1.1183113e+00
 -2.9628009e-01
 -1.1981910e+00
 -9.8490663e-02
 -1.0249846e+00
 -4.8144779e+00
  6.0570258e-01
 -2.1674936e-03
  5.8458447e-01
 -1.1055955e+00
  1.2554591e+00
  1.8308091e-01
 -7.2786301e-01
 -6.1818477e-02
 -3.8259397e+00
  4.8456743e-04
 -1.0104803e-02
 -2.6897441e-03
 -2.4282150e+00
 -2.3928940e-01
 -3.0791294e-04
 -7.9827702e-01
 -1.1270072e+00
 -3.1879494e-01
 -2.7519745e-01
 -2.5964728e-01
  3.9761793e-03
 -1.2730278e+00
  4.8205173e-03
 -1.0400893e-04
  2.1437842e-04
  2.9595426e-01
  3.9574353e-04
  3.8276070e-05
  2.2249912e-04
 -2.8671772e-04
 -1.7603418e-03
 -2.9718164e-01
 -3.4120537e-02
  2.7676589e+00
 -9.8819309e-04
  1.0890541e+00
  5.0059640e-01
 -4.3965161e-02
 -5.2131385e-01
 -1.0995159e+00
 -7.1393001e-01
  1.5090909e+00
 -2.7402442e+00
  2.8245795e+00
  8.9117461e-01
 -1.4734405e-01
 -9.2746019e-01
  7.5969046e-01
 -9.7375321e-01
  1.0657954e+00
 -3.5773741e-05
 -4.7247073e-01
  1.6529554e+00
 -1.9038593e+00
  4.9569184e-01
 -7.0351839e-01
  1.0468063e+00
 -4.4272184e+00
  6.8046570e-01
  3.4715983e-01
 -2.5748503e-01
 -5.0443405e-01
 -2.3333259e+00
  2.2610727e-01
 -1.7107630e-01
 -1.6709354e+00
  3.2451220e+00
  1.1991061e+00
 -1.2029023e+00
 -3.4252724e-01
 -1.3741710e+00
 -2.7004358e-01
  1.7245623e+00
 -3.4185132e-01
  6.0450947e-01
  1.3622713e-01
  4.6095935e-01
  7.2409213e-04
 -4.6076572e-01
  2.2425894e-04
  3.3680642e-01
 -3.4970039e-05
  1.2202494e+00
 -2.8643513e-04
 -1.1128332e-02
 -9.9457498e-04
  1.1011387e-01
 -1.3999625e-01
  4.4245768e+00
  2.7681518e-01
 -7.5801021e-01
 -2.1280643e-01
  3.9304869e+00
 -1.3115779e+00
 -7.2306186e-01
  2.0093953e-03
  1.9690106e+00
 -8.7220697e-03
 -5.1129639e-01
  6.8415098e-02
  6.1652559e-01
  5.6053007e-01
  1.4428509e+00
  3.6527291e-01
  3.7534731e-03
 -1.5454581e+00
 -7.3561209e-01
  1.0459837e+00
  1.3186879e-01
 -1.7306429e+00
  3.2123344e+00
  3.1462049e-01
  4.5682785e-01
  4.7966653e-01
 -1.5433695e+00
  3.7373321e+00
  1.4287087e+00
  3.4764834e-02
 -9.2053062e-01
 -1.0124505e+00
  3.7905574e+00
 -5.9399599e-01
 -2.1102455e-01
 -1.3208345e+00
  2.2196558e+00
 -1.9494295e-02
  3.0721822e-01
  5.5107796e-01
  6.1834687e-01
  3.1487575e-01
 -3.1774715e-03
 -2.1872140e-04
  1.2646500e-03
  7.6597387e-01
 -7.1593313e-03
  3.7312322e-05
 -1.4146814e-01
 -8.7193888e-01
  1.2363704e-01
  1.2371376e-01
 -2.1973267e+00
  3.0786475e-02
 -2.2437222e+00
 -9.1534293e-01
  1.9661820e+00
 -1.3457003e+00
 -2.0906272e+00
  1.1052397e-02
  1.3819166e+00
  9.1951557e-02
  2.1345046e+00
 -2.3716201e-01
  6.8649388e-04
  6.5779060e-02
  7.3194861e-02
 -4.4906375e-01
  2.7192233e-03
  1.3194907e-01
 -3.1602013e-04
  2.7942166e+00
 -8.8922679e-03
  1.7956349e+00
 -2.1748385e-01
  1.0383382e+00
 -2.7473381e-01
  4.0503389e-01
  4.4801739e-01
 -5.5479658e-01
 -1.2834830e+00
  2.2722539e-01
 -1.6840546e-01
 -1.3110313e-03
 -6.0249083e-02
  1.5862774e+00
 -1.3609079e-01
 -9.5083225e-01
 -2.1246043e-03
 -1.4319476e+00
 -2.2123076e-01
 -7.9737341e-01
 -2.4653825e-03
 -2.2351304e-01
 -1.5514109e-01
 -5.6459047e-03
  2.9160461e-01
  5.8176852e-04
  6.8180310e-04
  6.1876234e-02
 -4.4054439e-04
 -5.1004690e-04
  7.0737019e-02
  2.1190504e-03
  6.0459232e-04
 -3.4594848e+00
  2.3979607e-01
 -6.0967082e-01
  3.9844685e+00
  8.6930388e-01
 -2.8703618e-01
 -1.5963045e+00
  3.9901185e+00
 -9.3099773e-01
 -9.0021044e-01
  4.9617246e-01
  3.5709293e+00
 -1.9628457e+00
  1.8203946e+00
  1.7463455e-01
 -8.3037430e-01
  1.5054346e+00
  2.0976088e+00
 -3.4817421e-01
  1.0856211e+00
  2.7963409e+00
 -8.9790136e-02
 -3.4186907e+00
  1.6026113e+00
 -2.0481207e+00
  2.6432842e-01
  8.0091780e-01
 -1.6775621e+00
  8.5076338e-01
  2.5586076e+00
  3.1514611e+00
 -2.0593946e+00
 -2.1650970e+00
 -1.9148493e-01
 -8.9135057e-01
  1.7187579e-01
  7.4383032e-01
 -2.5679568e-02
 -3.6394054e-01
  2.2040865e-01
 -1.1542873e+00
  1.3064303e+00
 -1.4146480e-01
  1.8856159e+00
  5.6443189e-04
 -2.3483333e-01
  1.8238465e+00
 -4.8184919e-01
  2.1567245e-01
 -1.5364890e+00
  1.2013587e-02
  9.3315089e-01
  1.8755823e+00
  3.5738254e+00
  3.5181119e+00
 -1.3828471e+00
  1.2053161e+00
 -9.9926710e-01
  3.4583960e+00
  2.0098148e-01
 -1.7749442e-01
 -1.0223147e-03
 -3.2179998e-03
 -9.3857914e-01
  1.9985369e-04
  7.1958359e-03
 -1.1431869e+00
  1.7363212e+00
 -2.8780219e-03
 -1.3913344e+00
  9.1883503e-02
  3.9456212e-03
  9.1873221e-02
  4.4128001e-03
  1.4241434e+00
 -1.2756727e+00
  3.5910509e+00
  2.6047770e-05
 -2.0198076e+00
  5.9804654e-01
  1.1292616e+00
  2.0958936e+00
  4.5942594e-03
 -1.7297246e-01
 -8.4808093e-01
 -1.0105997e+00
  6.8134782e-03
 -1.4188116e+00
 -4.4926080e-01
  1.5605071e-01
 -7.5756121e-01
  3.2466144e-04
  9.8981386e-01
 -4.4429433e-04
  2.5862902e-01
 -5.1288348e-02
 -4.1674066e-01
  2.3618452e-03
 -1.2002382e+00
 -2.2010920e-05
  2.6095539e-01
 -6.5802975e-04
 -4.1644875e-04
  1.2239199e+00
 -2.4774449e-02
 -1.0250065e-01
 -6.4739299e-01
 -2.4839042e-04
  1.1582021e+00
  1.1566100e-02
  1.4578038e+00
  2.3094530e-03
  6.4875990e-01
 -6.0439056e-01
  6.7388159e-01
  5.7101337e-05
  1.2046256e-03
  3.4335742e-04
 -1.0811234e-04
 -4.3050766e-02
  9.0409803e-01
  5.3692627e-01
  1.2756832e-01
 -1.6910453e-05
  3.1258920e-01
  3.3735237e-04
 -5.3974608e-04
  3.2286081e-02
  1.8306327e+00
 -8.4728158e-01
  2.2696223e+00
  7.2868921e-02
  2.0090718e+00
  9.3848273e-02
  3.8968647e-01
 -2.4856272e+00
 -4.8187807e-01
  5.1719922e-01
  2.5107377e+00
 -3.9759070e-02
  6.1331308e-01
 -9.2076361e-01
  9.6007323e-01
  3.6196198e+00
 -2.2364967e-03
 -1.6789010e-04
 -3.2738176e-01
 -6.9732928e-01
  7.6162571e-01
  1.2272503e+00
 -1.2364998e-03
  4.8518732e-02
 -6.2228280e-01
 -4.2962987e-04
  3.3485790e-05
 -5.3050485e-03
 -6.1406195e-03
  9.7413611e-01
  6.9060433e-04
  9.7424733e-03
  3.1688227e-04
  4.0461821e-04
 -6.8167115e-05
  6.2740568e-05
 -1.5029567e-04
 -1.2883336e-04
 -3.2151377e-04
 -3.1631478e-04
  2.7919587e-04
 -1.6084980e-03
  1.1701937e-05
  9.1054157e-05
 -1.4206966e-04
  1.5781118e-04
 -1.9320940e-04
 -8.3932864e-06
 -1.5046233e-05
 -3.2401030e-04
 -8.0808142e-04
  4.1126943e-05
  2.5629092e-04
 -3.8132846e-04
  3.4902073e-04
  6.2722305e-05
  7.4706713e-07
 -8.0283068e-04
 -5.0647859e-04
  1.8561906e-04
  3.9181366e-05
 -2.1472415e-04
 -5.4887153e-04
  8.9122426e-05
  8.0675556e-04
 -2.9378000e-04
 -2.6867917e-04
  1.5696653e-04
 -4.6315169e-04
  3.1581600e-04
 -1.4475407e-04
  2.5393700e-04
 -9.1028793e-05
  4.3343328e-04
  2.7472153e-01
  1.5490656e-04
  8.5897314e-05
 -1.7774645e-03
  4.6989371e-04
  5.1900570e-04
 -1.0546332e-04
  4.9811177e-04
 -1.8984778e-04
  1.5250630e-04
 -2.9003501e-04
  1.6072892e-03
  1.1268993e-04
 -3.7843382e-04
  4.3648612e-01
  9.7099859e-01
 -6.8423271e-01
 -1.5070407e-01
 -2.0290868e+00
  4.2664188e-01
  5.4790292e-02
 -2.7837920e-01
  1.6392955e+00
  2.1323781e+00
  2.2764239e-01
 -4.7449857e-01
  1.0007362e-01
 -5.6793079e+00
  2.1234498e+00
  5.9784436e-01
 -2.6164141e-02
  6.3078225e-01
  2.1299582e+00
 -1.2363235e-03
 -1.5640688e+00
  1.7614857e+00
  2.3514798e+00
 -2.1554544e-04
 -2.8130896e+00
 -3.6273199e-01
 -9.8081583e-01
 -3.0165198e+00
  2.1632805e-03
  3.2127066e+00
 -1.8603979e-01
  3.8412187e+00
 -8.6693734e-01
 -1.6885545e+00
  9.1699803e-01
 -3.9621534e+00
  2.9193521e-01
  1.2037326e-01
  1.2581613e+00
 -1.6617049e+00
  1.6220560e-03
 -2.6125250e-02
 -1.3484955e+00
  7.5496894e-01
 -2.6203200e-01
  4.0352139e-01
 -5.9767426e-03
 -4.2708274e-03
  7.8814197e-04
  2.2394941e+00
 -3.5429155e-05
  8.3584100e-02
  9.6150078e-03
  1.1374326e-03
 -1.4323759e-01
 -1.8925092e+00
  1.0760457e-04
  9.2640956e-05
 -2.4635599e+00
  4.1139776e-01
 -2.0343119e-01
 -1.4014398e+00
 -4.3716192e-01
 -4.7799921e-01
 -1.0252052e-03
 -2.9893312e-05
  2.2245712e+00
  3.2761331e+00
 -4.4231605e-02
  5.6616455e-01
 -1.9723678e-03
  4.1940448e-01
 -8.3999956e-01
  4.2346790e-01
 -6.3465095e-01
  1.5412947e+00
  4.0005507e+00
 -1.9318862e-01
 -5.3899646e-01
  2.5995657e-01
  1.2251073e+00
 -5.1989269e-01
 -3.1387710e-04
  7.0635551e-01
  7.9712546e-01
 -8.9906353e-01
  2.0448422e-01
  8.1378275e-01
 -3.3687644e+00
 -7.8468108e-01
  5.5195212e-01
 -6.2578899e-01
 -2.7938361e+00
 -6.7390865e-03
 -1.7172383e-01
 -1.9843352e-03
 -3.2982916e-02
 -2.9705178e-03
 -1.0056161e+00
 -1.0346859e+00
 -5.8775028e-04
  4.3926355e-01
  5.8580007e-02
  1.3757781e-02
  2.7789881e-03
 -5.1739120e-01
 -7.1811657e-03
  2.9883084e-01
  3.7418392e-03
  4.5617639e-05
 -2.0809598e-01
 -3.9870346e-01
 -1.5351439e+00
  1.0625969e-03
  6.8184339e-02
 -1.7548805e-01
  1.7578913e+00
 -1.2753451e-01
  2.1454948e-03
 -1.8270344e-01
 -5.2911168e-01
 -1.9171251e-01
 -1.3000220e-01
 -9.4606441e-01
 -7.7650356e-01
 -7.1320653e-01
  1.7992708e-01
  4.4700894e-01
 -1.0061048e+00
 -1.2528172e+00
  6.9100392e-01
 -1.5027069e-01
  1.6140508e-02
  2.1279204e+00
  2.5333557e-01
  9.7886497e-01
 -1.4871615e-03
  9.7934288e-01
  9.3896556e-01
  2.8820932e+00
 -1.8118218e+00
  5.0747597e-01
 -3.0937486e+00
 -3.6841953e-01
  9.8787335e-05
  3.1351595e-04
 -2.2167799e+00
  1.0451798e-01
 -7.7129561e-01
  3.5502595e-01
 -8.8455403e-01
  2.7209207e-01
  4.9170607e-04
  1.7248507e-03
  2.1685004e-04
 -4.1881818e-01
  3.5188073e-01
  1.5484936e-04
  6.6166557e-03
 -2.2778092e-03
 -4.3022680e-01
 -1.6338719e+00
  5.3367549e-01
 -2.4265924e+00
 -8.2833093e-01
 -1.0374690e-02
  3.5959131e-01
  8.5066192e-02
 -2.0752366e+00
 -1.6170232e+00
  2.2276938e+00
  7.5127733e-01
  2.2493020e-01
 -1.4892048e-01
 -7.9004215e-03
  9.6264410e-01
  5.9234995e-01
 -1.9241096e-02
 -4.0693036e-01
 -8.6074674e-01
  5.0927663e-01
  3.4157825e-01
  1.4443262e+00
 -2.8129929e-01
  2.0625029e+00
  9.4485909e-01
 -1.4349277e+00
  2.0080330e+00
 -4.8852797e+00
  4.7693774e-01
 -1.4324613e+00
 -1.1825108e-01
  8.3929348e-01
  6.9351250e-01
 -7.1056944e-01
 -5.4402930e-01
  2.9873985e-01
 -1.1346883e+00
  1.4087700e+00
  2.4510886e-01
 -9.3704648e-02
 -8.5936075e-01
  5.4510134e-01
 -5.2765477e-01
 -4.4978413e-01
 -1.2482179e-01
  1.8304873e-01
 -9.7691296e-03
  5.0745720e-01
  2.9885716e+00
 -1.9916363e-01
  1.7993796e+00
 -1.0686218e-03
 -8.4214824e-01
  2.8292261e-06
  2.6221128e+00
 -9.8561193e-04
 -5.4884465e-05
 -2.2291375e-02
  3.0322213e-05
 -3.8010803e-01
 -3.3423767e+00
  6.1557151e-02
 -1.7738713e+00
 -2.6251234e-02
  4.0833376e-02
  2.0249976e-02
 -6.8716019e-01
  2.8791960e-04
 -2.2491901e+00
 -3.0405083e-01
 -2.5066501e-02
 -8.0274504e-01
 -4.7966838e-02
  2.1711689e-01
 -4.3817577e-01
  1.0437620e+00
  3.7321913e-01
 -2.2830036e+00
 -1.7194127e-01
  1.0364702e+00
 -8.5602695e-01
 -3.0945041e+00
 -2.3172536e-01
  5.5379205e-04
  1.8823661e-01
  4.8171520e-01
 -5.1293373e-01
  2.5268865e+00
 -3.0239454e-01
 -1.0868403e+00
  5.6722627e+00
 -3.6941609e-01
 -2.7480842e-06
  1.2584134e+00
  4.1869837e-01
  1.2668447e-01
 -4.5602373e-03
 -4.4209999e-03
 -2.5815701e-01
  1.4423691e+00
  2.9541182e-04
  2.8554623e-05
  7.8863086e-04
 -6.7200779e-04
 -1.0063277e+00
  2.9797273e-04
 -1.9801126e-01
 -9.5786982e-06
 -6.9481162e-03
  3.4584527e-04
 -2.6324022e-04
 -2.8872586e-04
 -1.5067654e-03
 -1.2246851e-02
 -2.0921316e-03
  2.8369677e-05
 -5.0229311e-05
  7.9696439e-04
 -5.9362366e-03
 -2.9424480e-03
  1.5698037e-03
  1.2099342e-04
  1.9954233e-03
 -1.1427378e-03
  1.1242193e-04
  8.6212647e-05
 -7.8230433e-04
  7.6924660e-04
 -1.1780846e-04
  6.9667760e-04
  4.4415802e-01
  3.4963868e-03
 -6.3539168e-04
 -2.0817554e-02
  7.7871555e-05
 -9.8110165e-04
 -1.6579635e-03
 -1.9567814e-03
  2.5268315e-04
 -6.8496840e-05
  1.0804437e-03
 -1.0713657e-03
  4.5369743e-04
 -1.5701137e-03
 -3.9259553e-01
 -4.3576694e-04
  3.5292594e-04
 -6.1023718e-04
 -2.1831867e-04
  1.2636505e-04
 -1.5536288e-03
  9.0077505e-05
 -2.5071211e-03
 -1.0446890e-03
  1.1397097e-04
  7.2395262e-05
 -7.2154144e-06
  3.0982750e-04
  3.7533761e-04
 -1.8576700e-03
 -6.1249809e-04
 -2.6647569e-05
 -2.4243403e-04
  4.8034385e-01
 -1.7415662e-01
  3.1759334e-01
 -1.6012224e+00
 -2.0497875e+00
  3.1130415e-01
 -6.2903935e-01
 -3.6876283e+00
  7.8319955e-01
 -1.9392356e-01
  4.1219264e-01
  2.6493967e-01
  1.2830800e+00
 -2.3606422e+00
 -8.7437952e-01
 -1.1220547e+00
 -3.7116009e-01
  1.8096313e+00
  2.9344237e+00
 -8.4437978e-01
 -1.7241493e-01
  9.9542910e-01
 -3.2539749e+00
  6.8156379e-01
 -3.5225074e+00
 -4.0074307e-01
  1.8915837e+00
  2.9652122e-01
 -2.9528515e+00
  3.9906859e-01
  2.7018261e+00
 -9.3304878e-01
 -2.2092967e+00
 -3.9701495e-01
  2.1723804e+00
  1.7588068e-02
  7.6373649e-01
  9.5990950e-01
 -4.3262395e-01
 -6.2899387e-01
  1.4952036e-02
  5.1941585e-02
  6.0639395e-03
  2.8378573e-01
  7.6000804e-01
 -1.3713278e-01
 -2.6269987e+00
 -6.9889933e-01
 -1.2671121e+00
 -4.3216956e-01
 -1.7920035e-01
 -4.6308947e-01
  1.6841711e+00
  3.7893734e+00
 -1.4868704e-05
  1.0228811e-04
 -5.5694440e-04
  7.9749792e-04
  5.7149678e-02
 -5.3281927e-01
  3.8794804e-01
 -2.1742919e-05
  2.7274864e-04
 -6.9236598e-04
 -2.0266220e-03
 -7.5549972e-01
  1.7209179e-04
 -5.4886856e-04
 -2.3040115e-03
 -1.8872897e-03
  3.4591972e-04
 -1.8448331e-05
 -1.7097144e-03
  8.4024324e-04
  1.1062292e-04
  1.0048097e-03
  2.1873646e-05
  4.5797197e-04
 -3.5357942e-05
  4.3972693e-02
 -7.4270781e-04
  1.1692551e-03
  3.1293872e-05
 -2.9323459e-05
 -1.2516830e-03
 -3.1221691e-01
 -1.1372437e-01
  3.7916827e-01
 -7.9700863e-04
  4.5811284e-01
 -5.0135481e-05
  4.6324616e-04
  1.1296047e+00
  3.8622531e-01
  7.6395226e-01
  2.6353440e-04
  6.3102011e-04
 -2.3991901e-04
  1.2331226e-04
 -4.2329179e-03
  1.3150064e-03
 -2.7511735e-05
 -3.4636955e-04
  1.1148887e-04
 -4.4710992e-05
  6.6277025e-06
 -5.1586914e-05
 -5.2220341e-05
 -7.8942103e-05
 -5.3524639e-04
  5.7082591e-05
 -4.2001087e-05
  5.9585276e-05
  2.6290113e-04
  7.3551411e-05
 -6.1885134e-04
 -1.2995009e-04
 -1.2895104e-04
  2.1728667e-04
  9.5875628e-05
  5.5297941e-04
 -1.3559255e-04
  3.8261394e-04
 -1.4186563e-04
 -1.0088563e-04
 -2.8901602e-04
 -8.3070848e-04
 -3.0561708e-04
 -5.9852767e-04
  3.4726996e-05
 -3.8263371e-04
  9.5750715e-05
 -3.1176300e-04
 -8.3891180e-04
  7.6739758e-05
 -2.5139641e-04
 -3.6109777e-04
 -1.3051617e-03
  5.8771402e-04
  5.9092796e-04
  4.1415670e-04
 -2.4733652e-04
 -1.0947567e-04
  1.0825383e-03
 -1.1240845e-03
  3.4559055e-04
  1.1017158e-04
 -7.7837125e-05
 -4.3295778e-04
  2.4897310e-05
 -4.0808256e-04
 -4.8910777e-05
 -3.7566599e-04
 -1.3504336e-04
  8.2373401e-05
  1.1419028e-04
  1.5643511e-04
  3.4007497e-04
 -7.1874278e-04
  3.5615769e-04
 -4.9787453e-05
 -5.4322481e-05
  3.3236959e-04
  8.5148599e-04
 -9.8046206e-04
 -1.3835373e-04
 -7.6035547e-05
 -7.6256634e-05
 -7.7967020e-04
  3.3711585e-05
  5.6757714e-04
 -1.3762611e-03
  3.0237017e-04
 -1.1067275e-04
  7.7939898e-05
 -4.6275974e-05
  8.1701008e-05
  3.5141909e-04
  2.9927183e-05
 -5.5634254e-04
  1.0228772e-03
 -5.2712596e-05
  1.7925941e-04
 -1.4367371e-03
 -1.2257174e-04
 -2.1762270e-04
  2.3009224e-04
 -3.5869778e-04
  6.8997499e-04
  1.6405666e-03
 -7.7544909e-04
 -8.1509897e-05
 -8.1681043e-05
  1.2277452e-03
  1.1454359e-05
 -1.8641012e-04
  2.8645366e-06
 -5.1286502e-04
 -3.5239273e-04
 -3.2081556e-05
  5.0111237e-05
 -4.0597070e-06
  1.7489914e-05
  8.8680776e-05
 -5.5294309e-04
 -3.9630668e-06
 -9.6406853e-05
 -6.5313507e-05
 -2.1884951e-04
 -5.3820211e-05
  2.4181771e-05
  3.2034470e-04
 -2.7746492e-04
 -2.7836408e-05
  9.8400968e-05
  4.3274750e-04
 -6.1797713e-05
 -6.3223102e-05
 -6.5278320e-05
  4.2163741e-04
  2.9498694e-04
 -1.5383682e-04
 -3.7036723e-05
 -2.4325696e-04
  2.5680245e-04
  5.8730511e-04
 -2.6309331e-06
 -2.7224551e-05
  5.0895830e-04
  4.1145392e-04
 -3.1175136e-04
 -5.6623539e-04
 -1.2995112e-05
  1.3825794e-03
  7.8035104e-05
  4.8073835e-04
  1.0375625e-04
 -3.6189993e-04
  2.2837585e-05
  5.4811815e-05
  2.9029703e-04
  7.2386953e-05
  7.6078402e-05
 -1.1240885e-03
  3.1164680e-05
  8.8616085e-05
 -5.6964747e-04
  1.5992833e-05
 -7.7173678e-04
  4.3260597e-04
 -3.5011792e-05
  6.8377465e-04
 -1.9624372e-04
 -7.2359413e-05
  5.3567252e-05
 -2.3657065e-04
  1.7512200e-04
 -1.7977385e-04
 -1.1862718e-04
  3.3318868e-04
 -1.3653823e-04
  9.0963746e-05
  1.3442747e-03
 -2.6328064e-04
  1.0607098e-04
 -4.1841649e-05
 -3.1100768e-05
 -7.9613342e-04
  2.3308308e-05
  9.9139835e-04
  8.7667370e-01
 -1.9047185e+00
 -3.3956572e-01
 -1.9911979e-03
  6.3774502e-01
  1.4580906e-05
  1.5764465e+00
 -2.1068134e+00
  1.1744119e+00
  3.9611728e-04
 -8.6338639e-01
  5.2464191e-02
 -3.4284985e+00
  1.1163676e+00
 -1.7979051e-01
  1.4653453e+00
 -1.2319165e+00
 -5.8091289e-01
 -3.2520321e-01
 -1.2545801e-04
  2.6799774e+00
 -9.5671701e-01
 -2.5444727e+00
 -1.0600785e+00
  1.1615723e-01
 -2.1816843e+00
 -4.2339817e-01
  2.5527730e+00
 -2.8808212e-01
 -7.2119319e-01
 -2.1625986e+00
  2.5396265e-02
 -2.2519875e-01
  2.7800756e+00
 -1.8735648e+00
 -2.9768813e+00
  4.1076699e-01
 -4.9360067e-01
  1.3917081e+00
 -1.6473053e+00
 -1.4589438e+00
 -9.8038130e-03
 -2.0138258e-01
  2.1862629e-01
 -9.9026233e-01
 -1.5310487e-01
 -8.1532117e-04
  5.0507462e-01
  2.7617949e-01
 -4.6292126e-01
 -5.0694641e-04
 -1.0674417e-01
 -2.3905847e+00
 -8.4208114e-05
  5.9016957e-04
 -9.0787573e-05
 -1.7970824e-04
 -5.9774034e-03
 -1.4677294e-01
  9.6992392e-04
 -1.5900184e+00
 -1.1011565e-02
  4.2106595e-04
  3.8191286e-01
 -5.6689564e-04
  2.9415977e+00
  1.1299830e-01
  4.3341123e-02
  2.4912430e-03
  2.8637865e-01
 -4.0590167e-02
 -1.3055383e-03
 -1.7269453e-04
 -2.0201830e-03
 -6.2814035e-02
  1.9661153e-03
  8.9619039e-05
  3.9635701e-03
 -6.5623166e-04
 -4.0003289e-02
 -4.9982885e-01
 -1.6468215e+00
 -6.6381083e-03
 -2.7865526e-01
 -3.9784434e-01
 -4.4006526e-01
  4.9905195e-03
 -4.9369523e-01
 -1.0998834e+00
 -1.5315984e+00
  4.1844693e-04
  5.9968058e-04
 -2.9134635e-02
  5.8400567e-04
  7.7606601e-01
  2.3134830e-03
 -1.5270250e-03
 -5.8234704e-01
 -4.7297049e-01
  2.0743113e-03
 -1.8150508e-03
  4.6199658e-03
 -1.6009608e-04
  1.8578077e-05
 -1.8840634e-05
  1.0190911e-03
  1.8186666e-04
  2.0144887e-03
  3.2213375e-06
 -4.2460353e-05
 -9.6485383e-07
 -4.1882732e-04
  2.1307994e-04
  1.3792719e-04
  7.9333739e-05
 -1.0365882e-03
 -1.1898915e-04
  1.3970378e-04
 -2.2154738e-04
  2.7470812e-04
 -2.3879170e-04
  7.4721262e-05
 -1.2749746e-04
 -3.3459999e-04
 -5.2628818e-04
 -2.4526656e-04
 -2.3486180e-04
  4.7099238e-06
 -4.7640034e-04
  2.7392434e-05
 -5.2971096e-04
 -3.3364857e-05
 -5.2846374e-04
  2.2013313e-03
 -3.7789860e-04
 -2.1669737e-04
  1.2041107e-04
  8.4970816e-05
 -9.7820826e-05
  1.1657726e-04
  8.7224209e-05
  3.9809536e-05
 -4.5788137e-04
 -3.5837232e-04
 -3.0694719e-04
  1.8906576e-04
 -1.2066173e-04
 -3.9358601e-05
  1.4507386e-04
  2.4121221e-04
  4.9903996e-05
 -4.0742954e-05
  1.9031687e-03
  9.3850242e-05
 -3.5250850e-05
  8.9673100e-05
 -1.0730463e-04
  2.5306689e-04
 -6.2161438e-05
  6.8697067e-05
  3.7845856e-04
 -1.2487351e-04
  4.2289668e-01
 -2.3384361e+00
  9.7129583e-02
 -2.4255719e+00
 -3.4551868e-01
  1.7396312e+00
 -3.4481983e+00
 -5.0652471e+00
  3.0695716e-01
 -9.4108187e-02
  9.1115272e-01
  2.3410156e+00
  6.6884892e-04
 -6.9122297e-01
 -4.3044828e-02
  9.0718114e-01
 -1.8444121e+00
  4.8737192e-01
 -1.7133963e+00
 -7.3168497e-04
 -1.9988425e+00
 -6.4357990e-01
  2.5217748e-01
  4.0351707e-04
  1.2516927e+00
 -5.9308533e-02
 -1.1064048e-02
 -1.2796423e+00
  1.2355153e-01
 -8.5409981e-01
  1.9101898e-01
  3.7747924e+00
 -3.1848246e-01
 -2.2458816e+00
  1.1557153e+00
 -2.0971322e+00
 -7.1290189e-01
 -1.0697539e-01
 -8.0030835e-01
  1.8664303e-03
  9.9608004e-02
  3.2942431e-04
 -1.1917723e+00
  8.8417196e-01
 -1.4779861e+00
 -6.9615775e-01
 -6.3507544e-04
  3.0375695e+00
 -5.0849124e-04
 -4.8389378e+00
  3.7004903e-04
  2.3415031e-04
  2.7919814e-03
  2.3053994e+00
  4.0409746e+00
 -3.5442903e+00
  2.8792675e+00
 -9.0312700e+00
  2.0820649e+00
  3.9170840e+00
 -3.5100214e+00
 -6.6122966e+00
 -2.5242478e-01
 -1.0884535e-03
 -1.1233820e+00
 -1.7415068e+00
 -1.8621982e+00
  1.5114485e+00
 -2.3468071e-01
  2.8699653e+00
 -4.8911128e+00
  4.7639760e-01
 -1.2399088e+00
  8.0623943e-01
  3.0204105e+00
 -4.3573780e+00
  5.2692187e-01
 -1.3273187e-01
  1.0257567e+00
 -1.1866816e+00
 -7.0269078e-01
  2.5937614e-01
  1.2967023e-01
  1.3563465e+00
 -2.8465703e+00
  8.1721199e-01
 -1.9975485e+00
  2.2584870e+00
 -1.4745946e+00
 -7.5592470e-01
  1.0095547e-01
 -4.9132365e-01
 -2.1758597e+00
 -1.4689456e-01
 -1.2990837e+00
 -1.1916204e-02
  1.9200380e+00
 -1.5026885e+00
  2.6045401e+00
 -1.3750190e-02
  9.5626861e-01
 -3.3138752e-01
  7.6132137e-01
 -4.7272224e+00
  2.6630769e+00
  3.3792604e-02
  9.5299148e-04
 -1.4234136e-01
 -3.6650003e-04
 -1.8863706e-04
  2.0271968e-04
  1.3226859e-03
  7.5976900e-04
 -3.6045778e-05
  3.5945661e-04
  4.8223359e-04
 -5.0771199e-05
 -6.9420505e-04
 -1.1394260e-03
 -2.4889046e-04
  7.4575754e-04
  1.8875650e-04
  1.1303520e-04
  2.1616845e-04
  4.9650316e-05
 -1.7403816e-04
 -3.3809221e-04
  1.5441727e-04
 -7.8178494e-04
 -4.4026595e-04
  1.1180339e-03
 -1.1832685e-04
 -5.8835390e-04
 -2.2930386e-03
 -1.3998867e-03
  1.1669061e-04
  5.4401410e-04
  5.3182396e-04
 -1.4696846e-03
 -5.5682057e-01
 -2.2845167e-04
 -6.9207069e-04
  1.1131447e-03
  1.1376359e-04
  7.8581349e-04
  6.6932692e-04
  5.8573467e-04
  1.3162241e-04
 -1.9266312e-03
  2.9378978e-04
 -1.0829188e-03
 -6.9021960e-05
  7.0425696e-05
 -1.6459419e-03
  2.8877257e-04
  4.0872727e-04
  1.0243001e-04
  3.2344335e-05
 -9.9865242e-04
 -7.2911855e-05
 -6.2366016e-05
  2.7696171e-04
 -1.0852717e-03
 -3.0871153e-01
  1.1112925e+00
 -1.3242488e+00
 -1.1365858e+00
  1.3943113e+00
  2.9581520e-01
 -1.1775514e+00
  9.1563142e-04
 -9.5941424e-01
  2.4981510e-03
 -6.0089326e-01
 -1.7169024e+00
  7.2221649e-01
  1.1153599e+00
 -1.7027009e-01
 -2.7946708e+00
 -4.1579768e-01
 -2.7709967e-02
  2.6213206e-04
 -7.8227812e-01
  1.4766577e+00
  1.3703467e-01
 -8.0081785e-01
 -8.8671249e-01
 -1.1562145e+00
 -4.7128490e-01
 -4.9074590e-01
  1.2605884e+00
  9.1144168e-01
 -5.7835704e-01
  9.1000670e-01
 -7.1721483e-04
 -7.5521994e-01
  8.8797700e-01
  1.1150639e+00
  1.7826883e-03
  5.8434343e-01
 -1.5013591e+00
 -3.5245676e-02
  9.7777879e-01
  3.6102575e-01
  1.2842798e+00
 -3.4148926e-01
 -5.3539360e-01
 -7.2846637e-04
 -5.3651340e-04
  6.9959819e-02
 -7.4635655e-01
  5.1963198e-01
 -4.9023098e-01
  2.9331228e-01
 -8.5462430e-05
  1.3410108e-02
  5.1509101e-05
  1.3434872e-02
  3.6734890e-02
  2.2600269e+00
 -7.6548254e-01
  7.3750240e-01
 -2.4591740e-02
 -9.7615272e-01
 -3.5855977e-04
 -3.1794575e-01
  6.1000133e-04
 -2.8481403e-01
 -6.5589589e-03
 -1.5584140e-03
 -3.6098216e-02
  1.1384251e+00
 -4.0612850e-02
 -6.1009973e-03
  2.6124281e-01
 -1.6670000e-04
 -8.1720032e-02
 -3.0394462e-01
 -5.9174822e-04
 -8.2638435e-02
  3.0996534e-01
  5.5621233e-02
  1.1619053e+00
 -1.2977283e+00
  3.0843982e-01
 -2.8840944e-01
 -1.3375400e-01
 -1.2928466e+00
 -5.0140613e-01
  2.7243996e-01
 -1.6060309e+00
  4.2459760e-02
 -1.0330542e+00
 -8.8778493e-04
  1.9614875e-01
 -1.4221686e-03
 -3.7510350e-01
 -1.1633000e-01
 -2.3662847e-02
 -2.8471671e-02
  3.7454152e-01
 -5.7468616e-04
  4.8448816e-02
  1.1379862e+00
  4.4000917e-03
  5.5062121e-01
  9.9498538e-05
 -8.6935710e-05
 -8.9866132e-04
 -9.7988909e-01
  2.2317545e-01
 -8.5722232e-01
  1.3063138e-02
 -8.2784456e-01
  1.7068107e+00
 -1.4045931e-01
 -2.7851939e+00
 -1.9725624e+00
  1.3699418e-01
 -2.2638056e-03
 -6.4279449e-01
 -2.8624698e-03
 -1.3614742e+00
  8.8952899e-01
  6.6843644e-02
 -5.5191657e-03
  5.5300711e-06
 -3.1962850e+00
 -4.1771492e-01
 -1.4894975e+00
  1.3509790e+00
 -2.8164876e+00
  1.4239234e+00
 -2.1818639e-01
  1.0084289e+00
 -2.3464687e+00
 -4.2627568e+00
  2.9113212e-01
  1.4289683e-01
  1.8627927e+00
 -1.5495303e+00
  1.5710377e+00
 -9.6996504e-01
 -2.3796155e+00
  3.6377415e-01
  5.9865911e-02
  9.1148466e-01
 -1.8377033e+00
 -2.0166276e+00
  1.3118206e+00
  2.0447860e+00
 -1.8205184e-01
 -1.9097048e+00
 -1.3428798e+00
  3.6019156e+00
  5.4476684e-04
 -2.5514510e-01
 -1.9365888e-02
  2.1785995e-04
 -1.8783009e+00
 -3.6702809e-01
  1.1877776e+00
  7.0528120e-01
  3.6810114e+00
  1.4960201e-03
 -1.0744222e-03
  1.1194336e+00
 -2.7337242e-04
  4.8582053e-01
  5.4949528e-01
 -7.5750101e-01
  5.5518055e-01
 -2.0217168e-04
 -1.2020463e-01
  4.5164459e-04
 -2.9333177e-01
  1.4017335e+00
 -5.4071550e-03
  5.2154413e-04
  1.0754909e-04
 -1.0215744e-04
 -1.9515881e-01
 -1.2530650e-02
  6.5258646e-04
 -5.8474112e-01
  1.4957136e+00
 -5.9629746e-02
  1.0936228e-01
 -3.1717607e-01
  3.3389818e-04
  6.8738479e-03
  1.5947159e-01
  5.3186947e-04
  2.3591028e-01
  6.0190255e-04
 -2.5368455e-01
  2.8323722e-01
 -1.5779183e-03
 -3.3457726e-01
  1.1663891e-01
  2.2919351e-04
  2.3097945e-04
  3.3608177e-01
  4.6900597e-01
  3.9975056e-01
  1.5602170e-03
 -2.3011977e-02
  3.6783382e-01
  1.8218374e-01
  2.6722989e-04
  8.1369460e-02
 -1.3930384e-03
 -1.5529094e-03
  4.0988816e-04
 -1.0816078e-04
  1.1554031e-03
 -3.7629975e-03
 -8.9081819e-05
 -2.4115691e+00
 -9.8396931e-03
  5.3975941e-03
 -9.4841890e-02
 -6.4280405e+00
  2.2985015e+00
 -1.1479503e+00
 -3.3547711e+00
 -1.5856462e+00
 -2.1537489e-03
  3.4714591e-02
 -1.3620378e+00
  1.2181561e+00
 -1.8229916e+00
  4.7303471e-01
  4.6354476e-02
  9.2220746e-02
 -1.0848118e+00
  6.4997584e-01
  5.0568364e-05
  2.2091441e-01
 -1.6842675e+00
 -2.5766975e-01
  4.8533654e-01
  2.8706962e-01
 -6.7468101e-01
 -8.5528102e-04
 -4.1331492e-02
 -3.3037436e-01
 -3.3083010e-02
 -6.2079132e-01
  1.1740769e+00
 -5.6720558e-03
  2.0763469e+00
 -2.6130751e-01
 -4.2390311e-01
  2.3074166e-01
 -4.0250349e-01
 -1.3088953e+00
 -1.2744106e+00
  8.7472230e-01
 -1.2894669e+00
 -6.0392622e-02
 -2.2581477e-01
  1.1458701e+00
 -9.2423148e-03
  6.6683474e-03
 -1.5257460e-01
  8.9223921e-02
 -1.7850960e-03
  4.3287386e-05
 -2.9259571e-01
 -9.6722128e-04
 -1.4650767e+00
  6.7291228e-04
 -3.1783403e-04
 -3.6909169e-04
  1.3567069e-04
 -5.0495449e-04
 -2.0878833e-06
 -6.8269961e-05
  2.7089796e-04
  2.8227089e-04
 -9.4630581e-05
  1.1262940e-04
  3.9607374e-04
 -5.5928522e-04
  7.8168738e-04
 -2.9401091e-04
  3.6025376e-04
 -6.9868879e-04
 -1.0848847e-04
 -6.2570885e-05
 -4.7022018e-05
 -9.3400711e-04
 -2.7914639e-04
  2.0502949e-04
  6.1980449e-05
  5.2166656e-06
  2.5729529e-04
 -8.5390481e-04
  6.9401198e-04
  4.4598174e-04
 -2.2448091e-04
 -1.0280070e-03
  5.9660512e-04
 -2.6390204e-04
 -8.3127023e-05
  5.4329593e-04
  9.8846732e-03
 -1.7602618e-03
  3.2140990e-04
  2.8399538e-05
 -5.0426484e-04
 -6.9647899e-04
  1.7683036e-03
 -5.1987101e-04
  1.7627400e-04
 -3.0247754e-04
 -9.2389906e-05
 -3.1759829e-04
  1.2622875e-03
  9.6515068e-05
  5.3156482e-04
  5.3987454e-04
  1.7955317e-04
 -9.9353980e-05
 -1.2683325e-03
 -1.2779648e-03
 -2.9580553e-05
 -1.8204532e-04
 -1.5938107e-04
 -2.6686428e-04
  5.6711404e-04
 -3.5339702e-04
 -2.4564657e-04
  7.1456445e-05
 -8.2945125e-04
  2.7463095e-05
 -4.7662741e-04
 -4.4888258e-04
 -1.4549448e-03
 -2.0749409e-04
  7.1223498e-05
 -7.0451590e-04
 -1.8644589e-04
  4.2716756e-06
 -3.5139112e-04
 -1.5005638e-04
 -2.7949724e-04
 -4.5177453e-06
 -3.0155067e-04
 -1.1441064e-04
  1.0164379e-04
  2.2912420e-04
  1.8152955e-04
 -1.1386581e-04
 -1.2578281e-03
  1.1980727e-04
  5.5426575e-04
 -2.1177570e-04
 -2.1457777e-04
  8.9757715e-04
  1.1441440e-04
 -1.5375417e-05
  8.4820582e-05
  5.6133635e-04
  1.1881864e-04
 -2.9107110e-04
  2.1795761e-04
  8.7432090e-05
  2.1803055e-05
 -1.7341576e-04
 -2.4307337e-04
  2.0581537e-03
  7.9569480e-05
  7.2002331e-05
  2.4851633e-04
  7.7761833e-05
 -2.5740478e-04
  4.1653748e-04
  1.1613655e-04
  6.8549713e-04
  3.3055215e+00
  1.7256442e+00
  1.0691783e+00
 -1.6752225e-01
 -2.1371040e+00
  1.5302646e+00
  6.6046615e-04
 -5.0021183e-01
 -5.2743894e-01
 -2.4344681e-03
  5.3534117e-02
 -1.3725804e+00
  1.0043862e+00
 -1.2097860e-02
  1.8552752e+00
 -1.1976730e+00
  5.2982770e-05
 -7.4402171e-01
  7.6583035e-02
  2.6908975e+00
 -2.6106966e+00
  1.1998832e+00
 -4.5777035e-01
  1.1617082e+00
 -2.5105102e+00
 -1.2058865e+00
  8.9094929e-02
  7.5663412e-01
 -7.0380551e-01
 -2.0938692e+00
  3.4969121e-01
  1.1679181e+00
  2.2100205e+00
 -4.7910905e-01
  7.0397210e-01
 -3.6909353e-02
  1.5897322e-03
 -9.8711205e-01
 -5.9373528e-01
  1.2012462e-01
 -1.0203918e-01
 -7.4809998e-01
 -1.9604102e-01
 -1.1653548e+00
 -2.3981786e-04
 -8.8128247e-05
 -8.3189702e-04
 -6.3793716e-04
  5.2591795e-01
 -1.5098331e-04
  2.0236544e-01
  1.4018693e-03
 -1.3294557e-05
  3.2560824e-04
 -4.1633379e-04
 -8.1249833e-05
  6.9376860e-05
  5.6518847e-04
  1.6302129e-04
 -4.9071405e-05
 -2.9335747e-04
 -7.5962581e-02
  2.2941036e-05
  8.9533190e-05
 -2.6770559e-04
  1.7681337e-04
 -3.4310765e-04
  4.4271557e-04
  3.5335941e-04
  5.1590483e-05
 -1.1244424e-04
 -1.9126151e-04
 -1.4625631e-04
 -2.4340750e-04
 -2.1286457e-04
  2.9799074e-04
  1.6004264e-03
  3.2576289e-05
 -1.2765164e-05
 -1.0571388e-03
 -1.3090071e-04
 -2.7383331e-04
  1.4174057e-04
 -3.1555156e-04
 -4.1233790e-05
  6.8145746e-05
 -5.7519806e-05
  3.6795180e-05
  6.2517292e-06
  4.1317835e-05
  9.1951362e-05
  1.6338649e-03
 -4.2712851e-04
 -1.2321392e-05
 -7.4811920e-05
 -1.8316921e-04
  6.6518702e-04
  1.0168969e-04
  8.6220105e-05
 -9.9334793e-06
 -2.4983769e-03
  2.8591757e-04
 -2.2199758e-05
 -9.5584684e-05
 -2.9648130e-05
 -4.1211260e-05
  2.4519325e-04
 -1.5248874e+00
  8.8184160e-01
 -1.9861736e+00
  2.2090945e+00
 -3.9186144e-01
 -1.6495749e+00
 -5.0970949e-02
  2.4926797e-02
  4.9470302e-01
 -1.4287193e+00
 -1.4980253e+00
  3.5073820e-01
 -1.3387711e+00
  4.5161390e+00
 -3.3162922e-01
 -5.3839695e-01
 -2.7154675e-01
  8.6788881e-01
 -5.5488718e-01
 -3.0626107e-03
 -1.4268624e+00
  5.7029933e-01
  4.2976689e+00
  1.9017650e-02
 -1.3698339e-01
  4.7542897e-01
 -3.3248067e+00
  6.6991225e-02
  3.3356366e-01
  4.7481939e-02
  1.1101891e+00
  1.8628407e-03
  6.7774314e-01
  1.0581886e+00
  8.7117791e-01
  6.1528546e-01
  2.6864316e-05
  1.1796441e-01
 -1.4093324e+00
  2.6571906e-01
  8.6623931e-01
  8.4943533e-01
  7.4157286e-01
 -1.5159618e+00
  1.7542946e+00
  2.3715380e-01
 -5.5773895e-02
  6.7327464e-01
  1.9784316e-01
  1.1463368e+00
 -4.2257742e-03
 -3.0993294e-02
 -8.0047292e-01
 -4.2399979e-01
 -6.7080779e-05
 -6.1442883e-04
  4.9886790e-01
  3.6145645e-04
 -7.5567462e-03
  1.1002429e+00
  3.2065266e-01
 -1.2566767e+00
 -7.6236093e-01
  1.9851327e-04
  2.2947915e-02
 -6.8957120e-02
  2.3616488e+00
  3.7564211e+00
 -2.4200553e-02
  1.3538287e+00
  5.4448706e-01
 -9.4540603e-02
 -5.8550811e-01
 -7.7103429e-02
 -2.3179247e+00
 -4.6158638e-02
  1.2227609e+00
  3.3453548e-01
 -2.7569464e-01
  1.0620381e-03
 -1.2225283e+00
 -6.1524909e-02
  1.0489670e-03
  6.5142855e-02
 -2.2410722e+00
 -1.3559643e-02
 -5.7345483e-04
 -4.0274180e-02
 -4.5126362e+00
  1.4536910e+00
 -6.2933043e-03
 -6.5862751e-01
  5.7756549e-01
 -1.7677863e+00
 -9.9292463e-01
 -1.1670671e-01
 -3.5183582e-01
  3.1316420e-01
  4.4735083e-01
 -1.0288234e-02
  7.4804639e-06
  2.5456661e-04
  2.5424443e-04
 -6.7364419e-01
  3.7234375e-05
  2.4286866e-04
 -5.4239863e-05
  1.3771940e-04
 -7.9407892e-04
  2.3059777e-03
  9.7094329e-05
  1.5435576e-02
  2.7541027e+00
 -1.6115572e-02
  1.3916310e+00
 -5.4684544e-01
  1.3011449e-03
  3.7355449e-03
 -1.0001937e-01
  1.3290194e+00
 -1.3648905e+00
  1.7771977e+00
  7.9536391e-03
  2.9476824e-01
  1.2453996e-03
  8.6031869e-05
  2.2020024e-01
  9.6026969e-01
 -4.0088352e-02
 -1.8199265e-01
  1.1192342e+00
  5.0849095e-04
 -8.0242421e-04
  5.6396914e-01
 -4.2841613e-01
 -7.2991326e-02
 -2.5530779e-03
 -2.2605616e-01
  1.9436338e+00
  3.0525279e-01
  1.2405963e+00
  3.5296068e-01
 -2.8832302e+00
  6.9527966e-01
 -9.6696298e-05
  4.8825541e-01
 -2.7819058e-01
  1.5624046e+00
  3.2305143e+00
 -1.1840129e-04
  3.0974136e-04
 -9.0064806e-01
 -9.9557203e-01
 -8.3686173e-04
  1.2707748e-03
  6.3144916e-04
 -2.9727109e-04
  1.1003166e-01
 -1.6768570e-03
 -6.1654794e-01
 -5.0847102e-03
 -5.2788239e-02
  1.9422965e-04
 -4.2511834e-05
  1.3532226e-04
 -1.0862163e+00
 -1.7518563e-04
 -4.5696983e-05
 -2.5540113e-04
  1.3066118e-04
  4.3437420e-04
  3.1788848e-05
  8.7193694e-05
  5.9086032e-04
 -3.0582425e-05
 -5.0044479e-04
  1.3028156e-03
  1.4031138e-03
 -2.7957011e-04
  5.0959224e-04
  7.6471784e-05
 -5.1579427e-04
  5.5496253e-05
  1.7654274e-03
 -4.1241836e-04
  1.7104484e-04
 -2.9649257e-04
  5.1046914e-04
  2.2855488e-04
  5.1157852e-04
 -1.6623320e-03
  9.1716455e-04
  9.0573489e-04
  1.2143663e-03
  1.3520141e-04
  2.0850467e-04
 -3.4963241e-04
 -6.8445988e-02
  2.2584943e-03
 -1.5175092e-03
 -3.9954478e-04
  1.8155555e-03
 -7.2278803e-05
 -5.1812116e-05
 -1.7907760e-04
 -1.3945947e-04
  3.0602762e-04
  3.7818452e-05
 -2.2954759e-04
 -1.1115252e-04
  8.4835925e-04
 -2.6968424e-04
  3.8857298e-04
  8.8925706e-05
  6.8785979e-05
 -2.2891514e-05
 -1.0165775e-05
 -2.7717973e-04
  1.8990575e-04
  6.9975265e-04
  2.8198253e-04
 -2.1585489e-05
  1.2440830e-03
 -8.9997193e-05
 -6.5372980e-05
  6.7697802e-05
  2.8468901e-03
 -8.3035084e-05
 -2.9606259e-04
 -2.1857044e-03
 -5.2985550e-05
  1.2114149e-04
 -1.2860453e-03
  8.1168793e-05
 -1.5104384e-05
  3.2900676e-05
  2.2816825e-05
  4.0372109e-04
 -8.2965462e-06
 -6.0615630e-04
  5.9280661e-04
  1.2734644e-04
  5.6173478e-04
  2.6547740e-04
  3.0326890e-04
  4.8225070e-04
  6.0061320e-05
  1.1682292e-05
 -4.4452847e-04
  5.5165781e-04
  2.7887840e-04
  5.9701543e-04
  5.9162663e-05
 -4.5971977e-04
 -1.4443211e-04
 -2.2805780e-06
 -9.6577845e-05
  1.9194507e-05
 -1.6523538e-05
  9.7606346e-05
 -2.2094738e-04
  7.8298122e-04
  7.2978233e-05
  5.1768846e-04
 -8.1128841e-05
  2.1557980e-06
 -2.5101763e-05
 -1.7304631e-04
  6.5485772e-05
  1.3761314e-05
  1.3203427e-04
  1.8887283e+00
  2.3637008e-04
 -9.2751456e-05
  2.6140024e-03
  3.0722521e-04
 -2.0542613e-04
  1.4439460e-03
 -1.3063963e-04
  1.3379428e-03
  5.4527522e-04
  6.6313241e-04
  2.1111520e-04
 -1.0553906e-04
 -1.0948430e-04
  2.0312777e-04
  4.0097407e-04
  1.0347620e-03
  1.4647747e-04
  3.5361465e-04
 -5.5402773e-04
 -6.4722641e-04
 -1.9854370e-03
  1.9967990e-04
  7.4999884e-04
  5.6698982e-04
  8.7124303e-05
 -2.0748188e-03
  7.2548829e-04
 -9.4779563e-04
  3.7818126e-04
 -1.4977681e-03
  2.4101514e-06
 -4.6824865e-04
 -3.2979511e-05
  3.7628339e-04
  1.7779673e-04
 -1.7286052e-03
  4.6602159e-05
  1.0347529e-03
 -5.2291732e-03
  6.0144073e-04
  4.9825397e-04
  5.5552536e-04
 -2.6916445e-04
 -8.3098676e-05
 -2.6611993e-04
 -4.4488144e-04
 -5.7264646e-05
  2.2763482e-04
 -1.1536224e-05
 -1.0775329e-05
 -6.3142017e-04
 -3.6841503e-04
 -4.2524222e-01
  1.2489968e-03
 -2.0554383e+00
  1.5058042e-03
 -1.1706410e-01
  8.2314074e-02
 -1.2466869e-02
  1.9818430e-05
  4.3066786e-04
 -9.5206869e-01
  9.2709482e-01
 -8.9480084e-01
  3.9025739e-02
  1.7665116e-02
 -3.2124749e-01
 -5.9498096e-01
  3.4816405e-01
  5.2061221e-03
 -3.8103128e-03
  7.0192635e-01
  8.7503952e-01
 -4.2979145e-01
  4.3902394e-01
  4.4369202e-02
  6.4324087e-01
 -8.6669005e-02
 -5.4930258e-03
  1.1581964e+00
  6.2547916e-01
  2.3827189e-01
  1.5339647e-01
  5.2288657e-01
 -3.6538512e-02
  1.4928159e+00
 -1.1756709e-01
  7.2425306e-01
  1.6335106e-02
  2.1019581e-01
  2.2688149e-01
  3.9498443e-03
  7.8371074e-03
 -2.3803869e-01
  7.1862951e-04
  4.7127244e-01
  2.5836594e+00
 -3.0991563e-01
  7.4823514e-02
  1.5212642e+00
  1.9918473e-03
 -4.2888588e-01
  3.9079916e-03
 -1.1269616e+00
 -2.9925412e-01
 -8.5234322e-04
  6.6349092e+00
  3.6041038e+00
  7.4424422e-01
  8.7948787e-01
  5.5255065e+00
 -1.0504056e+00
  5.7844610e+00
  1.2843086e-03
  3.7063065e+00
 -8.6459552e-04
 -3.0473745e-03
  3.3845048e-04
 -2.1387963e+00
 -1.1922495e-01
 -1.4695449e+00
  1.2942666e+00
 -1.4351180e-03
 -1.2544585e+00
  1.3667631e+00
  1.0812727e-04
  2.6150944e-03
 -5.8077206e-04
 -3.4024904e-04
  1.5595881e+00
  4.0885878e+00
  1.8484555e-01
  7.7354380e-05
  1.6338544e+00
  2.0630029e-01
  3.7158323e-03
  1.4646226e+00
  7.2551408e-04
  4.9325186e-01
  1.3139955e+00
  2.0969322e+00
  2.4920340e-01
  3.1584314e-01
  5.0515160e-02
  1.4746047e+00
 -4.3077517e-01
 -4.9463933e-04
  3.9160732e-05
  1.4397235e+00
  2.4868894e+00
  7.8636874e-03
 -2.2486353e-03
 -7.7647164e-05
  9.4772817e-04
  1.2014865e-04
  1.3170695e-03
 -3.1878625e-04
 -1.4451057e-01
 -2.7974704e-03
 -4.6463717e-02
  5.8528123e-05
  1.2815041e-04
 -1.1779486e-04
 -6.6314882e-05
 -1.2436570e-03
 -3.9334256e-05
  6.6186913e-04
 -3.4302686e-04
  4.0886493e-04
 -9.3323570e-06
 -1.6662347e-03
 -9.6875428e-06
  3.6757896e-04
  9.6445619e-05
  5.9809223e-05
 -8.9946217e-05
  1.6004953e-05
  4.4815190e-04
  6.6316058e-04
  9.4194307e-05
 -3.7212740e-05
 -1.5031086e-05
  3.8718881e-05
  2.7964814e-05
 -1.8523724e-04
 -1.1135580e-04
  2.8678533e-04
 -1.0090252e-04
 -6.5891910e-04
  5.2697421e-04
  1.4020179e-03
  4.5106877e-04
  5.5883679e-04
  1.0761168e-05
  3.7007630e-05
 -3.2339329e-04
 -9.1289723e-05
  1.5601356e-05
 -9.9419944e-05
 -1.6921840e-04
  1.4567824e-05
 -1.7976215e-04
 -7.7842466e-05
 -6.9222611e-04
 -5.1052491e-05
  1.2494056e-03
 -4.2742630e-04
  5.9212427e-05
  1.1721520e-04
 -4.0652230e-04
 -5.4197322e-04
  6.1228420e-05
  2.7677213e-04
  5.8653477e-05
 -2.7954238e-04
 -3.1628483e-04
 -4.0177684e-04
 -1.2968403e-03
 -3.8929884e-06
  4.8282091e-04
 -2.0141227e-04
 -4.8522805e-05
 -4.1747338e-05
 -4.0682888e-05
 -2.1877164e-05
  2.9850722e-05
  2.8976047e-04
 -6.0360457e-05
 -6.3409025e-05
 -6.1613173e-06
  2.5625675e-04
 -1.4747398e-04
 -7.4286472e-05
 -1.1640489e-03
 -2.1734488e-05
 -1.0110327e-04
 -1.1486877e-04
  7.9249102e-04
  2.0035112e-04
 -2.3098580e-04
  5.3660787e-04
  8.8479122e-05
 -8.3187851e-04
 -2.2684417e-05
 -3.7250671e-04
  8.4883324e-04
  3.9730093e-04
  3.7622431e-04
 -3.7179556e-04
 -8.1701117e-04
 -3.4656320e-04
 -1.6834936e-04
 -7.6094503e-04
 -3.0158335e-04
 -1.9418297e-04
  3.2796344e-04
 -1.8091130e-05
  1.5543400e-03
 -6.9104455e-05
 -1.0075552e-04
 -5.6229561e-05
  1.3723056e-05
 -1.5438659e-04
 -1.9197565e-04
 -7.8959689e-05
  1.5542179e-03
 -1.5325431e-04
  1.6433632e-05
  7.7491778e-01
 -1.8489127e-01
  2.3076947e+00
 -1.0820522e-03
  3.2982546e-01
 -3.6615074e-01
  2.9785836e-02
  1.0177342e+00
 -7.7316940e-01
  4.0793565e-01
  1.0021296e+00
  2.2129335e-01
  8.4400094e-01
  3.2042250e-01
  2.0260566e-01
  3.1943381e-01
  6.4043242e-01
 -1.6992674e+00
  2.1681335e-02
 -3.1006268e-01
  1.0564402e+00
 -1.8104482e-01
  3.7462518e-01
  2.7678902e-03
  2.4226741e-01
  2.0818654e-02
 -8.8812187e-03
 -8.0270690e-01
  8.3330297e-04
  3.2551771e-01
 -4.9467281e-02
  1.1516678e+00
  6.1315066e-01
  1.7135673e+00
  3.2557195e-01
 -2.0666773e+00
 -2.6747501e-02
  9.2725551e-01
  4.1890629e-02
  1.8713675e-01
  1.2721506e-01
 -4.6258908e-02
 -8.7598465e-02
  2.4159709e-01
 -4.3424505e-01
 -7.1778727e-01
  5.0823265e-01
 -5.0581315e-05
  5.2972889e-04
 -1.7763742e+00
 -3.4791112e-04
  3.2550180e-01
  1.0082146e+00
  8.8952285e-01
  9.0975611e-04
 -2.5696613e-02
  2.5701294e+00
  2.9324522e-04
 -4.4718650e-01
  1.2396036e-03
  3.7500863e+00
 -2.2518784e-03
 -1.0308512e+00
 -3.7478539e-01
 -7.7739489e-01
  3.5003545e+00
 -5.1759976e-01
  1.9539535e-01
  2.2301017e-03
  4.3125144e-01
  1.7975410e+00
  1.3659769e+00
 -4.8116326e-01
 -1.6279730e-01
  1.7676687e+00
 -2.7220231e-03
 -1.4477079e+00
 -9.0335438e-04
  8.7221563e-01
 -1.5071356e+00
  1.0489483e-02
  3.4477410e-01
  5.4541342e-02
 -8.5812055e-02
 -1.4183412e-01
 -3.8400881e+00
 -6.0652572e-01
 -1.5194052e-01
  1.7558478e-01
 -1.1525424e+00
 -8.8330966e-01
  2.0640895e-05
  6.8898249e-01
 -1.1554272e+00
 -6.6076505e-01
  8.6035989e-02
  1.7148311e-03
  7.9008326e-02
 -1.7452371e+00
 -8.1064999e-01
  3.1353841e-03
 -7.8071235e-04
 -5.3775200e-04
 -1.5236599e-03
  2.8187298e-04
 -9.4236994e-01
  1.0949936e-03
 -4.0603145e-03
  1.3409007e-03
 -6.3148534e-01
 -1.4285667e-01
 -6.7537767e-01
  2.6331060e+00
  9.4401538e-01
 -2.3384824e+00
  3.7987061e-02
 -1.6525733e+00
  5.9505904e-01
 -9.2171453e-02
  4.2068568e-01
 -4.2638168e-01
 -2.6342872e-01
 -3.0097228e-05
  3.2097280e-02
  5.4293122e-02
 -2.0766594e+00
  1.6957584e-01
 -2.6672982e-02
  5.3307652e-01
 -7.8405541e-01
 -1.3888566e+00
 -4.8506454e-01
  7.1835823e-02
 -1.6205015e+00
 -9.0389714e-02
  3.2700202e-01
  6.0014194e-04
 -1.8803436e-01
  1.2254124e-01
 -2.8535752e+00
 -7.8985626e-01
 -5.0513983e-01
 -2.3058569e+00
 -9.8106086e-01
 -5.2761900e-01
 -6.1284882e-01
 -7.6108396e-01
  2.8937185e-01
 -2.5111723e+00
  7.1769439e-02
  6.2337786e-01
  8.5241294e-01
 -1.8527028e-03
  2.3862096e-03
 -1.7754703e-03
  4.4353074e-01
 -5.6345809e-01
  5.8182113e-02
  1.2860342e-04
 -2.6917940e-01
  4.3755044e-05
 -2.6921602e-04
  1.7197797e-01
  6.5171409e-01
 -1.5511833e-01
 -1.1225765e+00
 -9.1293031e-01
 -2.2979937e+00
 -3.0973585e-02
 -6.2173873e-01
  1.1711808e+00
  6.9662130e-01
 -9.4354999e-01
 -1.0843488e+00
  9.5838144e-02
 -2.3871126e+00
  1.8412060e-01
  6.2486547e-01
  6.0111541e-02
  6.2756412e-02
 -1.1875300e+00
 -2.4453669e+00
  1.5670722e-02
  3.5635993e-01
 -9.5554575e-02
 -4.0143541e-01
  1.5435305e+00
  2.8085414e-01
  1.9447888e+00
 -5.2294177e-01
 -3.1295300e+00
  5.6797856e-01
 -9.0651590e-01
  4.9080861e-01
  5.6492239e-01
  6.1127263e-01
 -8.8791619e-04
  9.6788347e-01
 -3.7563670e-01
 -2.4795265e+00
 -2.1200456e-01
 -3.7340835e-01
  3.8377244e-02
  3.4988752e-01
 -5.0312956e-04
 -4.1564196e-01
  9.6960282e-01
  9.9068759e-03
 -9.7026068e-01
 -1.6358879e-04
 -2.8599101e-01
  5.1416792e-02
 -2.3171252e-04
  3.5644816e-03
 -2.4476197e-02
 -1.0031868e-02
  3.5408127e+00
  9.4073004e-01
  2.5660303e-01
  1.8348935e+00
 -1.1816907e+00
 -1.0174516e+00
  8.4861082e-01
  2.3449714e+00
  2.5475092e+00
  4.3989654e-04
 -4.5337790e-01
  8.0983931e-01
  1.3239542e-01
  8.8762665e-01
  3.2505496e+00
 -2.8124252e-01
  9.0064161e-05
  9.0853274e-01
 -9.4805110e-01
  8.4912044e-01
 -8.2953324e-05
  6.6027683e-01
  5.9211046e-01
 -1.8847373e-03
 -1.0440108e+00
  2.7380822e+00
 -2.5862672e+00
  1.3755987e-04
  5.7097664e-04
  1.6755526e-01
 -2.7506402e-01
  8.5072078e-02
 -8.1534129e-01
 -2.5961294e+00
  2.0458658e+00
  6.1470443e-01
  1.1609776e+00
  1.4533624e-01
 -1.3658067e+00
 -2.2016404e+00
 -1.6662885e+00
  1.0754691e-01
  7.3398948e-02
  1.3121470e+00
 -6.6214481e-05
  1.4702302e-04
  2.6460838e+00
  6.5851158e-01
 -1.7931144e+00
  9.5294070e-01
 -1.8123646e+00
 -1.2470007e+00
 -3.1474611e-01
 -1.9748336e+00
 -4.1746718e-01
 -1.6639107e+00
 -1.1420836e+00
  1.7687784e+00
  1.7774919e+00
 -8.2904415e-05
 -3.4330833e-01
  1.0097393e+00
  1.3639770e+00
 -1.7153282e+00
 -5.1979583e-02
  7.6731032e-04
 -1.6809207e+00
  1.4495592e+00
 -1.1281310e-04
  3.0584726e-04
  4.0413067e-04
  7.7427810e-01
 -1.3297608e+00
 -9.7281205e-05
 -2.5745225e+00
  4.5396155e-01
 -1.9904325e-04
 -1.3755281e+00
 -1.5732491e+00
  8.4849799e-01
 -4.7229663e-01
 -1.8199900e+00
 -1.9073031e-04
  6.0306404e-05
 -2.4506946e-01
  9.3019375e-04
  3.3175391e-01
 -1.2062635e+00
  1.8658936e+00
  3.1056110e-04
  1.2868366e-04
  3.3602959e-05
  1.8763888e+00
 -2.4225046e-01
  6.9345086e-04
  7.0990500e-04
  1.8309551e+00
 -5.3281158e-01
 -3.1870801e+00
 -1.1408027e+00
  1.3583571e+00
 -5.9418726e-01
 -8.6767215e-01
 -6.6649413e-01
 -2.8669870e-01
  1.9221619e-01
  5.3287554e-01
 -1.4645324e+00
 -1.1269062e+00
  2.6635680e-04
  3.7982163e-01
  6.6595726e+00
 -5.8579314e-01
 -7.8083646e-01
  5.8764356e-01
 -2.1767421e+00
 -1.6684192e-01
 -7.3735249e-01
 -7.3258740e-01
  1.1578245e+00
 -1.3390535e-01
  4.9792156e-01
 -3.2674840e-01
  8.7535282e-04
  4.5122114e-01
 -1.4900250e+00
  2.2266574e+00
  5.0297455e-04
  8.1310293e-04
  5.3523999e-01
  1.6927108e+00
 -5.8784467e-01
  1.3766384e+00
 -1.9542985e+00
  1.6284556e+00
 -2.3762100e+00
 -1.0536599e+00
 -9.7989869e-01
 -1.0298728e+00
  2.1132059e+00
  4.1123587e-01
 -6.2101650e-01
  8.3268571e-01
 -1.0673006e+00
  2.8680090e-04
  2.1180214e-05
 -4.8935205e-01
  1.2175386e+00
 -4.1386953e-01
  6.0531396e-01
 -1.3007574e+00
  3.8281828e-01
 -2.5392480e+00
  1.1395546e+00
 -2.0575635e+00
 -4.6631956e-01
  1.3968610e+00
  8.3067960e-01
  3.4058896e-01
 -2.3047095e-02
 -7.9846203e-01
 -8.7355298e-01
  9.8534268e-01
  2.7858799e+00
 -4.4462913e-01
 -1.8347269e-01
 -1.9871014e+00
  5.1248318e-01
  6.0107146e-04
 -6.3060366e-02
 -4.9529030e-05
 -2.1383131e+00
 -3.6241332e-01
  9.7259566e-05
 -6.0360187e-01
  4.4941678e+00
  1.4482293e-01
  1.1633177e+00
  9.7780973e-01
 -7.5940096e-01
  6.6495377e-01
  4.1348919e-01
  9.5641010e-02
 -1.9891614e-04
  7.1531522e-01
  7.6985612e-05
 -9.1379416e-01
  4.1606575e-01
  3.8648072e-01
 -1.4015247e-01
  4.1994594e-05
  2.4302316e-01
  1.3117266e+00
 -5.5582666e+00
 -4.2030532e-04
 -4.2193677e-04
  3.7930143e+00
  4.9670219e-01
 -1.3811526e+00
 -2.2812779e+00
 -7.9352794e+00
 -2.5805679e-01
 -2.9461656e+00
 -9.7014910e-01
  6.6597116e-01
  2.8207874e+00
 -2.8274975e+00
  1.6917485e+00
 -2.9296067e-01
  1.5940306e+00
 -1.0065373e+00
  3.2799428e+00
 -4.7122030e+00
 -1.4344625e+00
  7.1269065e-01
  3.1274240e+00
  1.5418267e+00
  1.3917081e+00
  6.8087417e-01
  3.5669836e-01
 -9.5577693e-01
 -2.0614040e+00
  1.5310918e+00
  2.5883939e+00
 -1.4790143e+00
 -1.8717473e+00
 -1.1329902e+00
  1.8205291e+00
  1.0993503e+00
  4.1564713e+00
 -2.7734115e+00
 -3.1698277e+00
  9.3628424e-01
  8.2085270e-01
  9.1949946e-01
 -8.8658535e-01
  1.1430807e+00
  1.0708412e+00
 -7.5363332e-01
 -1.7077616e-01
  3.5062569e-01
  3.9497213e+00
  2.7130780e-01
 -2.5466642e+00
  2.3843390e-01
  4.6788698e-01
 -5.2972436e-01
  2.2030078e-01
  2.9325099e+00
  2.3934140e+00
 -1.2497816e+00
 -2.2316799e+00
 -9.5176840e-01
 -6.4522666e-01
 -2.0701580e+00
  7.8208137e-01
  3.1986775e+00
 -2.1896800e-01
 -2.9557316e+00
  2.8072484e+00
 -1.0798285e-01
 -3.7154871e-01
  1.2906640e+00
  1.3614342e+00
  2.5747538e-01
  3.0798485e+00
 -1.6381589e+00
  1.5697689e-01
  2.9233425e+00
  2.9368749e+00
  2.5006971e-01
 -3.0135458e+00
 -2.5375209e+00
 -1.9945126e+00
 -3.6928174e+00
 -2.0209382e+00
  6.4232332e-01
  1.0276561e+00
  9.5874792e-01
  3.2773969e+00
  3.0356209e+00
 -1.3488927e+00
 -5.0595653e-01
 -2.9524784e+00
  3.1810558e+00
 -1.8600591e-01
  5.7985744e+00
  1.1582741e+00
  2.3859408e+00
 -1.2314988e+00
 -1.9404122e-01
 -5.3398496e-01
 -1.5225947e+00
  4.9348836e+00
  1.9785259e+00
 -1.2441144e+00
 -3.2515805e+00
 -1.1715634e-01
  1.0507096e+00
 -6.9121593e-01
 -1.5680245e+00
 -1.0003195e+00
 -1.4819077e+00
 -1.9692850e+00
  1.8314112e+00
  1.8943553e+00
 -6.8419838e-01
  1.0010823e-01
 -7.0816118e-01
  1.2502271e+00
 -7.7367789e-01
 -4.0485911e+00
 -1.5031664e+00
  2.8546741e+00
 -3.9318836e-01
 -1.0557779e+00
  1.0931857e+00
  5.4492146e-01
  5.3078872e-01
  2.1864018e+00
 -2.3991735e+00
 -5.4360408e-01
  2.5008299e+00
  1.8159500e+00
  1.9158792e+00
  4.4131580e-01
  1.0000187e-01
 -2.7434215e-01
 -7.5558805e-01
 -3.2094116e+00
  4.1346812e-01
  9.6061027e-01
  4.1612024e+00
 -3.0360763e+00
  1.0465168e+00
 -1.0001059e-01
 -2.0458382e-01
 -4.0916738e-01
  3.6462491e+00
  1.8223056e+00
  1.2232653e+00
 -1.0000008e-01
 -3.0178818e-01
 -1.0000040e-01
  6.5272450e-01
  1.9136074e-01
 -8.4345365e-01
  2.1407759e+00
 -1.5962894e+00
 -1.7774191e+00
  1.3778216e+00
 -2.2675255e-01
 -5.5703270e-01
  7.6230079e-01
 -1.0582335e+00
 -5.2831155e-01
  2.7506478e+00
 -1.6350683e+00
  2.2124153e-01
  7.7099442e-01
 -1.9228451e+00
 -2.0406449e-01
  2.9983017e-01
  3.0486742e-03
  3.0486742e-03
  3.0486742e-03
  3.0486742e-03
  3.0486742e-03
  3.0486742e-03
  3.0486742e-03
  3.0486742e-03
  3.0486742e-03
  3.2026470e-02
  3.2026470e-02
  3.2026470e-02
  3.2026470e-02
  3.2026470e-02
  3.2026470e-02
  3.2026470e-02
  3.2026470e-02
  3.2026470e-02
  2.2445071e-02
  2.2445071e-02
  2.2445071e-02
  2.2445071e-02
  2.2445071e-02
  2.2445071e-02
  2.2445071e-02
  2.2445071e-02
  2.2445071e-02
  1.4097084e-02
  1.4097084e-02
  1.4097084e-02
  1.4097084e-02
  1.4097084e-02
  1.4097084e-02
  1.4097084e-02
  1.4097084e-02
  1.4097084e-02
  1.1559763e-02
  1.1559763e-02
  1.1559763e-02
  1.1559763e-02
  1.1559763e-02
  1.1559763e-02
  1.1559763e-02
  1.1559763e-02
  1.1559763e-02
  7.2652181e-03
  7.2652181e-03
  7.2652181e-03
  7.2652181e-03
  7.2652181e-03
  7.2652181e-03
  7.2652181e-03
  7.2652181e-03
  7.2652181e-03
